
\data\
ngram 1=177
ngram 2=702
ngram 3=1319

\1-grams:
-99	<s>	-2.387216
-1.210546	</s>
-1.814307	find	-2.131613
-2.478003	locate	-2.420586
-2.478003	look	-2.720813
-3.21349	tell	-1.232548
-2.478003	for	-2.420586
-2.892711	me	-1.616929
-0.8413768	the	-2.694742
-4.171735	which	-1.065325
-4.074825	three	-0.4619477
-4.773795	ambiguous	-0.5629817
-3.889188	how	-1.329623
-4.171735	what''s	-1.065325
-1.857516	any	-2.86397
-3.706848	are	-0.581694
-2.580542	bowl	-1.845533
-2.580542	cloth	-1.845533
-2.580542	tray	-1.845533
-3.889188	many	-0.7051979
-3.740126	category	-0.9124719
-2.482331	object	-1.646389
-4.322891	biggest	-0.5440946
-4.322891	largest	-0.5440946
-4.322891	smallest	-0.5440946
-4.322891	heaviest	-0.5440946
-4.322891	lightest	-0.5440946
-4.322891	thinnest	-0.5440946
-1.569984	in	-3.628108
-4.551946	there	-0.7345057
-1.556745	a	-3.039566
-3.166839	on	-1.738131
-4.472765	objects	-0.8001386
-1.55856	room	-3.037685
-1.97297	placement	-2.74865
-2.420973	bring	-2.081666
-2.554568	take	-1.361701
-2.424289	give	-1.999915
-4.90137	clean	-0.2988303
-5.2024	tidy	-0.2988303
-5.2024	neaten	-0.2988303
-5.2024	order	-0.2988303
-4.424249	dump	-0.8413203
-4.357302	out	-0.8992332
-4.158359	up	-1.077566
-4.90137	kobject	-0.4741858
-4.90137	litter	-0.4741858
-4.90137	garbage	-0.4741858
-4.90137	trash	-0.4741858
-4.90137	waste	-0.4741858
-4.90137	debris	-0.4741858
-4.90137	junk	-0.4741858
-3.350495	left	-1.269438
-3.350495	right	-1.269438
-1.200912	at	-3.997122
-4.90137	above	-0.4741858
-4.90137	behind	-0.4741858
-4.90137	under	-0.4741858
-1.151639	to	-2.72496
-4.60034	most	-0.6954452
-4.90137	top	-0.4741858
-3.638758	of	-1.571052
-2.948202	from	-2.252224
-4.244923	get	-0.9989416
-4.244923	grasp	-0.9989416
-4.244923	pick	-0.9989416
-2.443479	deliver	-2.059356
-3.597105	put	-1.321099
-3.597105	place	-1.321099
-2.202199	go	-2.996229
-2.202199	navigate	-2.996229
-1.980105	it	-2.917396
-3.722044	my	-0.84409
-4.421014	bag	-0.8440901
-4.421014	baggage	-0.8440901
-4.421014	valise	-0.8440901
-4.421014	suitcase	-0.8440901
-4.421014	trolley	-0.8440901
-2.175741	alex	-2.246587
-2.175741	charlie	-2.246587
-2.476771	elizabeth	-1.948001
-2.175741	francis	-2.246587
-2.476771	jennifer	-1.948001
-2.476771	linda	-1.948001
-2.476771	mary	-1.948001
-2.476771	patricia	-1.948001
-2.175741	robin	-2.246587
-2.175741	skyler	-2.246587
-2.476771	james	-1.948001
-2.476771	john	-1.948001
-2.476771	michael	-1.948001
-2.476771	robert	-1.948001
-2.476771	william	-1.948001
-2.636794	taxi	-2.562387
-2.636794	cab	-2.562387
-2.636794	uber	-2.562387
-1.252745	and	-2.769917
-2.950771	person	-1.560368
-3.67667	waving	-1.534203
-3.37564	raising	-1.828839
-3.37564	pointing	-1.828839
-1.554137	,	-2.799349
-3.37564	their	-1.534202
-1.347781	beacon	-3.151488
-3.37564	arm	-1.828839
-3.421014	)	-1.784173
-4.551946	answer	-0.7345057
-3.551946	say	-0.9935526
-4.551946	unknown	-0.7345056
-4.204971	something	-1.035051
-3.903941	what	-1.315573
-3.727849	your	-1.484607
-4.551946	question	-0.7345057
-4.204971	about	-1.035051
-4.204971	time	-0.7723413
-3.602911	day	-1.315573
-3.727849	"team's"	-1.035051
-4.204971	joke	-0.7723413
-2.424842	people	-2.773879
-4.204971	yourself	-0.7723413
-3.903941	is	-1.035051
-4.204971	nme	-0.7723413
-4.204971	country	-0.7723413
-4.204971	affiliation	-0.7723413
-4.648856	name	-0.6571571
-4.648856	gender	-0.6571571
-4.648856	pose	-0.6571571
-4.204971	today	-0.7723413
-4.204971	tomorrow	-0.7723413
-4.204971	week	-0.7723413
-4.204971	month	-0.7723413
-2.435339	men	-2.463127
-2.435339	women	-2.463127
-4.949886	boys	-0.4425627
-4.949886	girls	-0.4425627
-4.949886	male	-0.4425627
-4.949886	female	-0.4425627
-4.949886	sitting	-0.4425627
-4.949886	standing	-0.4425627
-4.949886	lying	-0.4425627
-4.949886	down	-0.4425627
-2.870705	follow	-1.154697
-2.347826	meet	-1.683174
-1.318442	pron	-3.180852
-2.587215	guide	-1.398049
-2.587215	escort	-1.398049
-2.587215	lead	-1.398049
-2.587215	accompany	-1.398049
-2.164557	back	-2.557517
-4.104788	serve	-0.8571429
-4.104788	arrange	-0.8571429
-4.104788	distribute	-0.8571429
-4.104788	provide	-0.8571429
-1.986098	contact	-2.039782
-1.986098	face	-2.039782
-1.986098	greet	-2.039782
-3.627667	drinks	-1.581849
-3.627667	snacks	-1.581849
-2.436669	everyone	-2.762072
-1.658517	all	-3.539598
-2.201698	front	-2.696141
-2.201698	main	-2.696141
-2.201698	rear	-2.696141
-2.436669	guests	-2.762072
-2.436669	elders	-2.762072
-2.436669	children	-2.762072
-1.900668	entrance	-3.29754
-1.900668	door	-3.29754
-3.347826	ask	-1.856253
-1.467013	introduce	-3.731057
-1.591571	.	-3.606526
-3.347826	leave	-1.856253
-2.171735	pron_pos	-2.550357
-2.773795	you	-1.951953
-3.250916	may	-1.951952
-3.250916	can	-1.951952
-3.250916	will	-1.951952

\2-grams:
-0.775525	<s> find	-1.987578
-3.18783	<s> locate	-0.6126046
-3.18783	<s> look	-0.8571426
-2.004618	<s> tell	-1.232578
-3.048357	<s> the	-0.3947721
-3.66745	<s> a	-0.2983917
-2.025626	<s> bring	-1.286705
-1.973534	<s> take	-0.809624
-2.047684	<s> give	-1.191479
-3.692498	<s> clean	-0.2988303
-3.993529	<s> tidy	-0.2988303
-3.993529	<s> neaten	-0.2988303
-3.993529	<s> order	-0.2988303
-3.215377	<s> dump	-0.8413203
-3.036052	<s> get	-0.9989416
-3.036052	<s> grasp	-0.9989416
-3.036052	<s> pick	-0.9989416
-2.198729	<s> deliver	-1.12429
-3.387244	<s> put	-0.6980293
-3.387244	<s> place	-0.6980293
-1.00116	<s> go	-2.988402
-1.00116	<s> navigate	-2.988402
-3.343075	<s> answer	-0.7345057
-2.343075	<s> say	-0.99355
-3.993425	<s> something	-0.2983917
-3.692395	<s> what	-0.4735999
-3.516304	<s> your	-0.5980965
-2.439435	<s> follow	-0.5264304
-1.485608	<s> meet	-1.347258
-2.133044	<s> guide	-0.7389112
-2.133044	<s> escort	-0.7389112
-2.133044	<s> lead	-0.7389112
-2.133044	<s> accompany	-0.7389112
-2.895917	<s> serve	-0.8571447
-2.895917	<s> arrange	-0.8571447
-2.895917	<s> distribute	-0.8571447
-2.895917	<s> provide	-0.8571447
-0.7772269	<s> contact	-2.039505
-0.7772269	<s> face	-2.039505
-0.7772269	<s> greet	-2.039505
-0.6655041	find the	-2.024419
-3.439086	find three	-0.2753723
-1.17469	find alex	-2.214549
-1.17469	find charlie	-2.214549
-1.47572	find elizabeth	-1.916161
-1.17469	find francis	-2.214549
-1.47572	find jennifer	-1.916161
-1.47572	find linda	-1.916161
-1.47572	find mary	-1.916161
-1.47572	find patricia	-1.916161
-1.17469	find robin	-2.214549
-1.17469	find skyler	-2.214549
-1.47572	find james	-1.916161
-1.47572	find john	-1.916161
-1.47572	find michael	-1.916161
-1.47572	find robert	-1.916161
-1.47572	find william	-1.916161
-0.9612953	find pron	-2.425827
-0.002146451	locate the	-2.024419
-2.774482	locate three	-0.2753723
-0.0008240175	look for	-2.414885
-0.2927087	tell me	-1.147912
-0.8601411	tell the	-0.883064
-1.348618	tell a	-0.7345057
-1.364618	tell something	-0.7345057
-1.063588	tell what	-0.993553
-0.8874966	tell your	-1.154697
-0.002146451	for the	-2.024419
-2.774482	for three	-0.2753723
-0.3215642	me </s>
-0.5187499	me the	-0.6669719
-1.289631	me which	-1.065325
-1.007084	me how	-1.329623
-1.289631	me what''s	-1.065325
-2.588991	the </s>
-3.331078	the three	-0.4425627
-3.93317	the ambiguous	-0.5629817
-1.02601	the any	-2.84168
-1.740845	the bowl	-1.92289
-1.740845	the cloth	-1.92289
-1.740845	the tray	-1.92289
-3.277216	the object	-0.5283702
-3.599162	the biggest	-0.5871558
-3.599162	the largest	-0.5871558
-3.599162	the smallest	-0.5871558
-3.599162	the heaviest	-0.5871558
-3.599162	the lightest	-0.5871558
-3.599162	the thinnest	-0.5871558
-0.7175367	the a	-3.357179
-4.060745	the kobject	-0.4741858
-4.060745	the litter	-0.4741858
-4.060745	the garbage	-0.4741858
-4.060745	the trash	-0.4741858
-4.060745	the waste	-0.4741858
-4.060745	the debris	-0.4741858
-4.060745	the junk	-0.4741858
-2.787018	the left	-1.126818
-2.787018	the right	-1.126818
-3.354068	the taxi	-1.040324
-3.354068	the cab	-1.040324
-3.354068	the uber	-1.040324
-2.110145	the person	-1.56037
-0.5071559	the beacon	-3.06397
-3.364345	the time	-0.7723415
-3.063189	the day	-1.315573
-1.59604	the people	-2.762072
-3.808231	the name	-0.6571571
-3.808231	the gender	-0.6571571
-3.808231	the pose	-0.6571571
-3.364345	the week	-0.7723415
-3.364345	the month	-0.7723415
-1.596043	the men	-2.762072
-1.596043	the women	-2.762072
-1.361062	the back	-2.696154
-1.361073	the front	-2.697768
-1.361073	the main	-2.697768
-1.361073	the rear	-2.697768
-1.596043	the guests	-2.762072
-1.596043	the elders	-2.762072
-1.596043	the children	-2.762072
-0.03906241	which are	-1.065325
-0.8672437	three any	-0.5629817
-1.058861	three biggest	-0.2753723
-1.058861	three largest	-0.2753723
-1.058861	three smallest	-0.2753723
-1.058861	three heaviest	-0.2753723
-1.058861	three lightest	-0.2753723
-1.058861	three thinnest	-0.2753723
-0.136523	ambiguous any	-0.5629817
-0.02081964	how many	-0.7051979
-0.03321951	what''s the	-0.4425628
-1.883196	any category	-0.9124737
-0.657499	any object	-1.787657
-0.1160401	any placement	-2.736261
-0.5364375	are the	-1.065325
-0.976309	are on	-0.7345057
-1.365192	are men	-0.4425627
-1.365192	are women	-0.4425627
-1.374953	are boys	-0.4425627
-1.374953	are girls	-0.4425627
-1.374953	are male	-0.4425627
-1.374953	are female	-0.4425627
-1.374953	are sitting	-0.4425627
-1.374953	are standing	-0.4425627
-1.374953	are lying	-0.4425628
-2.250028	bowl </s>
-2.173858	bowl in	-0.5629817
-2.676535	bowl there	-0.2753723
-2.322948	bowl on	-0.4763375
-1.359475	bowl to	-0.9989417
-0.03361501	bowl ,	-2.591004
-2.250028	cloth </s>
-2.173858	cloth in	-0.5629817
-2.676535	cloth there	-0.2753723
-2.322948	cloth on	-0.4763375
-1.359475	cloth to	-0.9989417
-0.03361501	cloth ,	-2.591004
-2.250028	tray </s>
-2.173858	tray in	-0.5629817
-2.676535	tray there	-0.2753723
-2.322948	tray on	-0.4763375
-1.359475	tray to	-0.9989417
-0.03361501	tray ,	-2.591004
-1.139363	many any	-0.2753723
-1.450698	many bowl	-0.2753723
-1.450698	many cloth	-0.2753723
-1.450698	many tray	-0.2753723
-0.2013102	many people	-1.228779
-0.780592	category in	-0.8001386
-1.567403	category there	-0.2753723
-0.4881657	category on	-1.065325
-0.439596	category from	-1.109874
-2.071966	object </s>
-1.974713	object in	-0.8001386
-2.778336	object there	-0.2753723
-1.757365	object on	-0.7515146
-2.052079	object at	-0.6954452
-2.428922	object above	-0.4741858
-2.428922	object behind	-0.4741858
-2.428922	object under	-0.4741858
-1.184839	object to	-1.253896
-0.9500074	object from	-1.782691
-1.788613	object and	-0.6980293
-0.1353122	object ,	-2.591004
-0.4423509	biggest any	-0.6767229
-0.5625875	biggest object	-0.3860578
-1.074093	biggest objects	-0.2753723
-0.4423509	largest any	-0.6767229
-0.5625875	largest object	-0.3860578
-1.074093	largest objects	-0.2753723
-0.4423509	smallest any	-0.6767229
-0.5625875	smallest object	-0.3860578
-1.074093	smallest objects	-0.2753723
-0.4423509	heaviest any	-0.6767229
-0.5625875	heaviest object	-0.3860578
-1.074093	heaviest objects	-0.2753723
-0.4423509	lightest any	-0.6767229
-0.5625875	lightest object	-0.3860578
-1.074093	lightest objects	-0.2753723
-0.4423509	thinnest any	-0.6767229
-0.5625875	thinnest object	-0.3860578
-1.074093	thinnest objects	-0.2753723
-8.752857e-05	in the	-3.628108
-0.08844327	there are	-0.7345057
-3.039325	a object	-0.6980293
-0.00220055	a room	-2.953987
-2.995587	a unknown	-0.7345057
-2.648611	a joke	-0.7723415
-0.01490289	on the	-1.730207
-1.742536	on top	-0.4741858
-0.07485859	objects on	-0.8001386
-1.160686	room </s>
-2.437461	room are	-0.4425626
-3.282522	room to	-0.4763375
-0.03339832	room .	-3.606526
-1.24644	placement </s>
-1.777213	placement and	-0.818546
-0.03382265	placement ,	-2.715642
-1.371102	bring me	-1.426017
-1.355052	bring the	-0.7259428
-2.049767	bring any	-0.8001386
-0.0591295	bring it	-2.722282
-1.605688	bring my	-0.6011775
-1.521448	take the	-0.6678528
-1.888923	take out	-0.8413203
-2.30179	take to	-0.2753723
-1.487703	take my	-0.6011775
-1.804458	take alex	-0.6571571
-1.804458	take charlie	-0.6571571
-2.105488	take elizabeth	-0.4425627
-1.804458	take francis	-0.6571571
-2.105488	take jennifer	-0.4425627
-2.105488	take linda	-0.4425627
-2.105488	take mary	-0.4425627
-2.105488	take patricia	-0.4425627
-1.804458	take robin	-0.6571571
-1.804458	take skyler	-0.6571571
-2.105488	take james	-0.4425627
-2.105488	take john	-0.4425627
-2.105488	take michael	-0.4425627
-2.105488	take robert	-0.4425627
-2.105488	take william	-0.4425627
-0.1346329	take pron	-2.053673
-1.368516	give me	-1.426017
-1.383621	give the	-0.8440902
-2.046083	give any	-0.8001386
-0.0565563	give it	-2.722282
-1.985795	give drinks	-0.8571426
-1.985795	give snacks	-0.8571426
-0.6042323	clean out	-0.2988303
-0.6042099	clean up	-0.2988303
-0.3032104	tidy up	-0.2988303
-0.2442241	neaten the	-0.2988303
-0.2442241	order the	-0.2988303
-0.05716961	dump the	-0.2988303
-0.04960766	out the	-0.2988303
-0.03226108	up the	-0.8114223
-0.1623644	kobject to	-0.4741858
-0.1642634	litter </s>
-0.1642634	garbage </s>
-0.1642634	trash </s>
-0.1642634	waste </s>
-0.1642634	debris </s>
-0.1642634	junk </s>
-0.3487739	left in	-1.534203
-1.574858	left most	-0.4741858
-1.574678	left of	-0.4741858
-0.3501574	left arm	-1.534203
-0.3487739	right in	-1.534203
-1.574858	right most	-0.4741858
-1.574678	right of	-0.4741858
-0.3501574	right arm	-1.534203
-3.742067e-05	at the	-3.15184
-0.1470563	above the	-0.4741858
-0.1470563	behind the	-0.4741858
-0.1470563	under the	-0.4741858
-2.054072	to me	-1.99737
-0.5780752	to the	-2.515774
-1.582714	to alex	-2.465735
-1.582714	to charlie	-2.465735
-1.883744	to elizabeth	-2.166188
-1.582714	to francis	-2.465735
-1.883744	to jennifer	-2.166188
-1.883744	to linda	-2.166188
-1.883744	to mary	-2.166188
-1.883744	to patricia	-2.166188
-1.582714	to robin	-2.465735
-1.582714	to skyler	-2.465735
-1.883744	to james	-2.166188
-1.883744	to john	-2.166188
-1.883744	to michael	-2.166188
-1.883744	to robert	-2.166188
-1.883744	to william	-2.166188
-1.285791	to everyone	-2.762072
-0.507639	to all	-3.539598
-2.196948	to leave	-1.856253
-1.020857	to pron_pos	-2.549679
-0.09743462	most object	-0.6954452
-0.177516	top of	-0.4741858
-0.0100972	of the	-1.002637
-0.002084644	from the	-1.779921
-0.03895887	get the	-0.9989416
-0.03895887	grasp the	-0.9989416
-0.04587189	pick up	-0.9989416
-1.366401	deliver the	-0.8440902
-2.027452	deliver any	-0.8001386
-0.03681456	deliver it	-2.722282
-1.966062	deliver drinks	-0.8571426
-1.966062	deliver snacks	-0.8571426
-0.9909539	put the	-0.3004424
-0.06674967	put it	-1.567057
-0.9909539	place the	-0.3004424
-0.06674967	place it	-1.567057
-0.0004073763	go to	-2.996229
-0.0004073763	navigate to	-2.996229
-1.362245	it on	-1.862163
-0.01979197	it to	-1.998838
-0.7660713	my bag	-0.8440901
-0.7660713	my baggage	-0.8440901
-0.7660713	my valise	-0.8440901
-0.7660713	my suitcase	-0.8440901
-0.7660713	my trolley	-0.8440901
-0.06202612	bag to	-0.8440901
-0.06202612	baggage to	-0.8440901
-0.06202612	valise to	-0.8440901
-0.06202612	suitcase to	-0.8440901
-0.06202612	trolley to	-0.8440901
-2.694299	alex </s>
-0.03965636	alex at	-2.98534
-1.593657	alex to	-1.440247
-1.998186	alex from	-1.065325
-2.0615	alex and	-0.4425627
-1.432328	alex ,	-1.601535
-2.694299	charlie </s>
-0.03965636	charlie at	-2.98534
-1.593657	charlie to	-1.440247
-1.998186	charlie from	-1.065325
-2.0615	charlie and	-0.4425627
-1.432328	charlie ,	-1.601535
-2.627582	elizabeth </s>
-0.04194124	elizabeth at	-2.684759
-1.589353	elizabeth to	-1.154697
-2.000365	elizabeth from	-0.8001386
-2.048389	elizabeth and	-0.2753723
-1.432927	elizabeth ,	-1.311241
-2.694299	francis </s>
-0.03965636	francis at	-2.98534
-1.593657	francis to	-1.440247
-1.998186	francis from	-1.065325
-2.0615	francis and	-0.4425627
-1.432328	francis ,	-1.601535
-2.627582	jennifer </s>
-0.04194124	jennifer at	-2.684759
-1.589353	jennifer to	-1.154697
-2.000365	jennifer from	-0.8001386
-2.048389	jennifer and	-0.2753723
-1.432927	jennifer ,	-1.311241
-2.627582	linda </s>
-0.04194124	linda at	-2.684759
-1.589353	linda to	-1.154697
-2.000365	linda from	-0.8001386
-2.048389	linda and	-0.2753723
-1.432927	linda ,	-1.311241
-2.627582	mary </s>
-0.04194124	mary at	-2.684759
-1.589353	mary to	-1.154697
-2.000365	mary from	-0.8001386
-2.048389	mary and	-0.2753723
-1.432927	mary ,	-1.311241
-2.627582	patricia </s>
-0.04194124	patricia at	-2.684759
-1.589353	patricia to	-1.154697
-2.000365	patricia from	-0.8001386
-2.048389	patricia and	-0.2753723
-1.432927	patricia ,	-1.311241
-2.694299	robin </s>
-0.03965636	robin at	-2.98534
-1.593657	robin to	-1.440247
-1.998186	robin from	-1.065325
-2.0615	robin and	-0.4425627
-1.432328	robin ,	-1.601535
-2.694299	skyler </s>
-0.03965636	skyler at	-2.98534
-1.593657	skyler to	-1.440247
-1.998186	skyler from	-1.065325
-2.0615	skyler and	-0.4425627
-1.432328	skyler ,	-1.601535
-2.627582	james </s>
-0.04194124	james at	-2.684759
-1.589353	james to	-1.154697
-2.000365	james from	-0.8001386
-2.048389	james and	-0.2753723
-1.432927	james ,	-1.311241
-2.627582	john </s>
-0.04194124	john at	-2.684759
-1.589353	john to	-1.154697
-2.000365	john from	-0.8001386
-2.048389	john and	-0.2753723
-1.432927	john ,	-1.311241
-2.627582	michael </s>
-0.04194124	michael at	-2.684759
-1.589353	michael to	-1.154697
-2.000365	michael from	-0.8001386
-2.048389	michael and	-0.2753723
-1.432927	michael ,	-1.311241
-2.627582	robert </s>
-0.04194124	robert at	-2.684759
-1.589353	robert to	-1.154697
-2.000365	robert from	-0.8001386
-2.048389	robert and	-0.2753723
-1.432927	robert ,	-1.311241
-2.627582	william </s>
-0.04194124	william at	-2.684759
-1.589353	william to	-1.154697
-2.000365	william from	-0.8001386
-2.048389	william and	-0.2753723
-1.432927	william ,	-1.311241
-0.001117771	taxi </s>
-0.001117771	cab </s>
-0.001117771	uber </s>
-1.241246	and bring	-2.705544
-1.419072	and take	-2.528146
-1.241246	and give	-2.705544
-1.241249	and deliver	-2.705544
-2.39081	and put	-1.567057
-2.39081	and place	-1.567057
-2.695575	and go	-1.271965
-2.695575	and navigate	-1.271965
-2.220593	and follow	-1.733325
-1.419076	and guide	-2.528146
-1.419076	and escort	-2.528146
-1.419076	and lead	-2.528146
-1.419076	and accompany	-2.528146
-2.095778	and ask	-1.856253
-0.2149645	and introduce	-3.731057
-1.523246	person in	-0.8001386
-1.509106	person at	-0.8001386
-0.7380038	person waving	-1.534203
-0.4369738	person raising	-1.828839
-0.4369738	person pointing	-1.828839
-0.0125309	waving in	-1.534203
-0.006486368	raising their	-1.534189
-0.006028266	pointing to	-1.828839
-0.9296249	, find	-2.715664
-0.9296953	, locate	-2.715664
-0.9296953	, look	-2.715664
-0.3286502	, and	-2.204601
-1.551308	, follow	-2.096691
-1.053981	, meet	-1.430779
-1.220328	, you	-1.951847
-0.313901	their left	-1.534203
-0.313901	their right	-1.534203
-0.3086532	beacon </s>
-1.822821	beacon to	-2.030323
-0.4262744	beacon and	-2.522392
-0.9588809	beacon ,	-2.416102
-2.073526	beacon )	-1.784173
-0.006313182	arm in	-1.828839
-0.006751168	) </s>
-0.08574836	answer a	-0.7345056
-0.5464134	say the	-0.883064
-1.033075	say a	-0.7345057
-1.046449	say something	-0.7345057
-0.7454192	say what	-0.993553
-0.5693279	say your	-1.154697
-0.08845979	unknown question	-0.7345056
-0.04202926	something about	-1.035051
-0.0215188	what day	-1.315573
-0.01446465	your "team's"	-1.035049
-0.08159716	question to	-0.7345057
-0.04202926	about yourself	-0.7723415
-1.027637	time </s>
-0.1194328	time to	-0.993553
-0.3225442	day of	-1.315573
-0.3225488	day is	-1.03505
-0.519145	"team's" nme	-0.7723415
-0.519145	"team's" country	-0.7723415
-0.519145	"team's" affiliation	-0.7723415
-1.027637	joke </s>
-0.1194328	joke to	-0.993553
-0.0007118868	people in	-2.773879
-1.027637	yourself </s>
-0.1194328	yourself to	-0.993553
-0.3430565	is today	-0.7723415
-0.3430565	is tomorrow	-0.7723415
-1.027637	nme </s>
-0.1194328	nme to	-0.993553
-1.027637	country </s>
-0.1194328	country to	-0.993553
-1.027637	affiliation </s>
-0.1194328	affiliation to	-0.993553
-0.1079958	name of	-0.6571571
-0.1079958	gender of	-0.6571571
-0.1079958	pose of	-0.6571571
-1.027637	today </s>
-0.1194328	today to	-0.993553
-1.027637	tomorrow </s>
-0.1194328	tomorrow to	-0.993553
-1.027637	week </s>
-0.1194328	week to	-0.993553
-1.027637	month </s>
-0.1194328	month to	-0.993553
-2.486839	men </s>
-0.002787286	men in	-2.762072
-2.486839	women </s>
-0.002787286	women in	-2.762072
-0.1796109	boys </s>
-0.1796109	girls </s>
-0.1796109	male </s>
-0.1796109	female </s>
-0.1796109	sitting </s>
-0.1796109	standing </s>
-0.1944569	lying down	-0.4425627
-0.1796109	down </s>
-1.796784	follow alex	-0.4425627
-1.796784	follow charlie	-0.4425627
-2.097815	follow elizabeth	-0.2753723
-1.796784	follow francis	-0.4425627
-2.097815	follow jennifer	-0.2753723
-2.097815	follow linda	-0.2753723
-2.097815	follow mary	-0.2753723
-2.097815	follow patricia	-0.2753723
-1.796784	follow robin	-0.4425627
-1.796784	follow skyler	-0.4425627
-2.097815	follow james	-0.2753723
-2.097815	follow john	-0.2753723
-2.097815	follow michael	-0.2753723
-2.097815	follow robert	-0.2753723
-2.097815	follow william	-0.2753723
-0.1088326	follow pron	-1.951893
-1.008489	meet alex	-1.391056
-1.008489	meet charlie	-1.391056
-1.309519	meet elizabeth	-1.107328
-1.008489	meet francis	-1.391056
-1.309519	meet jennifer	-1.107328
-1.309519	meet linda	-1.107328
-1.309519	meet mary	-1.107328
-1.309519	meet patricia	-1.107328
-1.008489	meet robin	-1.391056
-1.008489	meet skyler	-1.391056
-1.309519	meet james	-1.107328
-1.309519	meet john	-1.107328
-1.309519	meet michael	-1.107328
-1.309519	meet robert	-1.107328
-1.309519	meet william	-1.107328
-1.455136	pron </s>
-1.455125	pron at	-2.425827
-0.0451205	pron to	-2.530349
-1.786144	pron ,	-2.096691
-1.932593	pron back	-1.951952
-2.309551	guide to	-0.2753723
-1.771435	guide alex	-0.6571571
-1.771435	guide charlie	-0.6571571
-2.072465	guide elizabeth	-0.4425627
-1.771435	guide francis	-0.6571571
-2.072465	guide jennifer	-0.4425627
-2.072465	guide linda	-0.4425627
-2.072465	guide mary	-0.4425627
-2.072465	guide patricia	-0.4425627
-1.771435	guide robin	-0.6571571
-1.771435	guide skyler	-0.6571571
-2.072465	guide james	-0.4425627
-2.072465	guide john	-0.4425627
-2.072465	guide michael	-0.4425627
-2.072465	guide robert	-0.4425627
-2.072465	guide william	-0.4425627
-0.1005886	guide pron	-2.053673
-2.309551	escort to	-0.2753723
-1.771435	escort alex	-0.6571571
-1.771435	escort charlie	-0.6571571
-2.072465	escort elizabeth	-0.4425627
-1.771435	escort francis	-0.6571571
-2.072465	escort jennifer	-0.4425627
-2.072465	escort linda	-0.4425627
-2.072465	escort mary	-0.4425627
-2.072465	escort patricia	-0.4425627
-1.771435	escort robin	-0.6571571
-1.771435	escort skyler	-0.6571571
-2.072465	escort james	-0.4425627
-2.072465	escort john	-0.4425627
-2.072465	escort michael	-0.4425627
-2.072465	escort robert	-0.4425627
-2.072465	escort william	-0.4425627
-0.1005886	escort pron	-2.053673
-2.309551	lead to	-0.2753723
-1.771435	lead alex	-0.6571571
-1.771435	lead charlie	-0.6571571
-2.072465	lead elizabeth	-0.4425627
-1.771435	lead francis	-0.6571571
-2.072465	lead jennifer	-0.4425627
-2.072465	lead linda	-0.4425627
-2.072465	lead mary	-0.4425627
-2.072465	lead patricia	-0.4425627
-1.771435	lead robin	-0.6571571
-1.771435	lead skyler	-0.6571571
-2.072465	lead james	-0.4425627
-2.072465	lead john	-0.4425627
-2.072465	lead michael	-0.4425627
-2.072465	lead robert	-0.4425627
-2.072465	lead william	-0.4425627
-0.1005886	lead pron	-2.053673
-2.309551	accompany to	-0.2753723
-1.771435	accompany alex	-0.6571571
-1.771435	accompany charlie	-0.6571571
-2.072465	accompany elizabeth	-0.4425627
-1.771435	accompany francis	-0.6571571
-2.072465	accompany jennifer	-0.4425627
-2.072465	accompany linda	-0.4425627
-2.072465	accompany mary	-0.4425627
-2.072465	accompany patricia	-0.4425627
-1.771435	accompany robin	-0.6571571
-1.771435	accompany skyler	-0.6571571
-2.072465	accompany james	-0.4425627
-2.072465	accompany john	-0.4425627
-2.072465	accompany michael	-0.4425627
-2.072465	accompany robert	-0.4425627
-2.072465	accompany william	-0.4425627
-0.1005886	accompany pron	-2.053673
-1.086659	back </s>
-0.3393435	back entrance	-2.696136
-0.3393435	back door	-2.696136
-0.3659684	serve drinks	-0.8571426
-0.3659684	serve snacks	-0.8571426
-0.3659684	arrange drinks	-0.8571426
-0.3659684	arrange snacks	-0.8571426
-0.3659684	distribute drinks	-0.8571426
-0.3659684	distribute snacks	-0.8571426
-0.3659684	provide drinks	-0.8571426
-0.3659684	provide snacks	-0.8571426
-1.003714	contact alex	-2.214549
-1.003714	contact charlie	-2.214549
-1.304744	contact elizabeth	-1.916161
-1.003714	contact francis	-2.214549
-1.304744	contact jennifer	-1.916161
-1.304744	contact linda	-1.916161
-1.304744	contact mary	-1.916161
-1.304744	contact patricia	-1.916161
-1.003714	contact robin	-2.214549
-1.003714	contact skyler	-2.214549
-1.304744	contact james	-1.916161
-1.304744	contact john	-1.916161
-1.304744	contact michael	-1.916161
-1.304744	contact robert	-1.916161
-1.304744	contact william	-1.916161
-1.003714	face alex	-2.214549
-1.003714	face charlie	-2.214549
-1.304744	face elizabeth	-1.916161
-1.003714	face francis	-2.214549
-1.304744	face jennifer	-1.916161
-1.304744	face linda	-1.916161
-1.304744	face mary	-1.916161
-1.304744	face patricia	-1.916161
-1.003714	face robin	-2.214549
-1.003714	face skyler	-2.214549
-1.304744	face james	-1.916161
-1.304744	face john	-1.916161
-1.304744	face michael	-1.916161
-1.304744	face robert	-1.916161
-1.304744	face william	-1.916161
-1.003714	greet alex	-2.214549
-1.003714	greet charlie	-2.214549
-1.304744	greet elizabeth	-1.916161
-1.003714	greet francis	-2.214549
-1.304744	greet jennifer	-1.916161
-1.304744	greet linda	-1.916161
-1.304744	greet mary	-1.916161
-1.304744	greet patricia	-1.916161
-1.003714	greet robin	-2.214549
-1.003714	greet skyler	-2.214549
-1.304744	greet james	-1.916161
-1.304744	greet john	-1.916161
-1.304744	greet michael	-1.916161
-1.304744	greet robert	-1.916161
-1.304744	greet william	-1.916161
-0.01070318	drinks to	-1.292046
-0.01070318	snacks to	-1.292046
-0.0007315227	everyone in	-2.762072
-0.0001073174	all the	-2.762198
-0.3018831	front entrance	-2.696136
-0.3018831	front door	-2.696136
-0.3018831	main entrance	-2.696136
-0.3018831	main door	-2.696136
-0.3018831	rear entrance	-2.696136
-0.3018831	rear door	-2.696136
-0.0007315227	guests in	-2.762072
-0.0007315227	elders in	-2.762072
-0.0007315227	children in	-2.762072
-0.0002067164	entrance and	-3.29754
-0.0002067164	door and	-3.29754
-0.005794914	ask pron	-1.856253
-7.680447e-05	introduce pron	-3.731057
-0.0001008568	. </s>
-0.005711904	leave </s>
-0.4783375	pron_pos taxi	-2.550358
-0.4783375	pron_pos cab	-2.550358
-0.4783375	pron_pos uber	-2.550358
-0.4819913	you may	-1.951952
-0.4819913	you can	-1.951952
-0.4819913	you will	-1.951952
-0.004803088	may find	-1.951952
-0.004803088	can find	-1.951952
-0.004803088	will find	-1.951952

\3-grams:
-2.264565	<s> find the
-3.267935	<s> find three
-1.00312	<s> find alex
-1.00312	<s> find charlie
-1.30415	<s> find elizabeth
-1.00312	<s> find francis
-1.30415	<s> find jennifer
-1.30415	<s> find linda
-1.30415	<s> find mary
-1.30415	<s> find patricia
-1.00312	<s> find robin
-1.00312	<s> find skyler
-1.30415	<s> find james
-1.30415	<s> find john
-1.30415	<s> find michael
-1.30415	<s> find robert
-1.30415	<s> find william
-0.05022152	<s> locate the
-0.9649279	<s> locate three
-0.0001144034	<s> look for
-0.2680618	<s> tell me
-0.8612651	<s> tell the
-1.339045	<s> tell a
-1.339945	<s> tell something
-1.038915	<s> tell what
-0.8628239	<s> tell your
-0.700715	<s> the time
-0.3996849	<s> the day
-0.3026982	<s> a joke
-0.5729106	<s> bring me
-0.5685591	<s> bring the
-1.257061	<s> bring any
-0.6001398	<s> bring it
-0.8074162	<s> bring my
-1.02637	<s> take the
-1.297055	<s> take out
-2.097108	<s> take to
-0.8958791	<s> take my
-1.220311	<s> take alex
-1.220311	<s> take charlie
-1.521341	<s> take elizabeth
-1.220311	<s> take francis
-1.521341	<s> take jennifer
-1.521341	<s> take linda
-1.521341	<s> take mary
-1.521341	<s> take patricia
-1.220311	<s> take robin
-1.220311	<s> take skyler
-1.521341	<s> take james
-1.521341	<s> take john
-1.521341	<s> take michael
-1.521341	<s> take robert
-1.521341	<s> take william
-0.555933	<s> give me
-0.5861639	<s> give the
-1.240063	<s> give any
-0.568047	<s> give it
-1.173182	<s> give drinks
-1.173182	<s> give snacks
-0.4274323	<s> clean out
-0.4274248	<s> clean up
-0.126405	<s> tidy up
-0.1057709	<s> neaten the
-0.1057709	<s> order the
-0.007788649	<s> dump the
-0.003751503	<s> get the
-0.003751503	<s> grasp the
-0.004385933	<s> pick up
-0.440465	<s> deliver the
-1.09434	<s> deliver any
-0.4335186	<s> deliver it
-1.027441	<s> deliver drinks
-1.027441	<s> deliver snacks
-0.08616942	<s> put the
-0.08616942	<s> place the
-4.182057e-07	<s> go to
-4.182057e-07	<s> navigate to
-0.01458216	<s> answer a
-0.5252101	<s> say the
-1.003245	<s> say a
-1.004494	<s> say something
-0.7034642	<s> say what
-0.527373	<s> say your
-0.02063437	<s> something about
-0.007113031	<s> what day
-0.003604126	<s> your "team's"
-1.124966	<s> follow alex
-1.124966	<s> follow charlie
-1.425996	<s> follow elizabeth
-1.124966	<s> follow francis
-1.425996	<s> follow jennifer
-1.425996	<s> follow linda
-1.425996	<s> follow mary
-1.425996	<s> follow patricia
-1.124966	<s> follow robin
-1.124966	<s> follow skyler
-1.425996	<s> follow james
-1.425996	<s> follow john
-1.425996	<s> follow michael
-1.425996	<s> follow robert
-1.425996	<s> follow william
-1.000378	<s> meet alex
-1.000378	<s> meet charlie
-1.301408	<s> meet elizabeth
-1.000378	<s> meet francis
-1.301408	<s> meet jennifer
-1.301408	<s> meet linda
-1.301408	<s> meet mary
-1.301408	<s> meet patricia
-1.000378	<s> meet robin
-1.000378	<s> meet skyler
-1.301408	<s> meet james
-1.301408	<s> meet john
-1.301408	<s> meet michael
-1.301408	<s> meet robert
-1.301408	<s> meet william
-1.959085	<s> guide to
-1.076571	<s> guide alex
-1.076571	<s> guide charlie
-1.3776	<s> guide elizabeth
-1.076571	<s> guide francis
-1.3776	<s> guide jennifer
-1.3776	<s> guide linda
-1.3776	<s> guide mary
-1.3776	<s> guide patricia
-1.076571	<s> guide robin
-1.076571	<s> guide skyler
-1.3776	<s> guide james
-1.3776	<s> guide john
-1.3776	<s> guide michael
-1.3776	<s> guide robert
-1.3776	<s> guide william
-1.959085	<s> escort to
-1.076571	<s> escort alex
-1.076571	<s> escort charlie
-1.3776	<s> escort elizabeth
-1.076571	<s> escort francis
-1.3776	<s> escort jennifer
-1.3776	<s> escort linda
-1.3776	<s> escort mary
-1.3776	<s> escort patricia
-1.076571	<s> escort robin
-1.076571	<s> escort skyler
-1.3776	<s> escort james
-1.3776	<s> escort john
-1.3776	<s> escort michael
-1.3776	<s> escort robert
-1.3776	<s> escort william
-1.959085	<s> lead to
-1.076571	<s> lead alex
-1.076571	<s> lead charlie
-1.3776	<s> lead elizabeth
-1.076571	<s> lead francis
-1.3776	<s> lead jennifer
-1.3776	<s> lead linda
-1.3776	<s> lead mary
-1.3776	<s> lead patricia
-1.076571	<s> lead robin
-1.076571	<s> lead skyler
-1.3776	<s> lead james
-1.3776	<s> lead john
-1.3776	<s> lead michael
-1.3776	<s> lead robert
-1.3776	<s> lead william
-1.959085	<s> accompany to
-1.076571	<s> accompany alex
-1.076571	<s> accompany charlie
-1.3776	<s> accompany elizabeth
-1.076571	<s> accompany francis
-1.3776	<s> accompany jennifer
-1.3776	<s> accompany linda
-1.3776	<s> accompany mary
-1.3776	<s> accompany patricia
-1.076571	<s> accompany robin
-1.076571	<s> accompany skyler
-1.3776	<s> accompany james
-1.3776	<s> accompany john
-1.3776	<s> accompany michael
-1.3776	<s> accompany robert
-1.3776	<s> accompany william
-0.3094928	<s> serve drinks
-0.3094928	<s> serve snacks
-0.3094928	<s> arrange drinks
-0.3094928	<s> arrange snacks
-0.3094928	<s> distribute drinks
-0.3094928	<s> distribute snacks
-0.3094928	<s> provide drinks
-0.3094928	<s> provide snacks
-1.000034	<s> contact alex
-1.000034	<s> contact charlie
-1.301064	<s> contact elizabeth
-1.000034	<s> contact francis
-1.301064	<s> contact jennifer
-1.301064	<s> contact linda
-1.301064	<s> contact mary
-1.301064	<s> contact patricia
-1.000034	<s> contact robin
-1.000034	<s> contact skyler
-1.301064	<s> contact james
-1.301064	<s> contact john
-1.301064	<s> contact michael
-1.301064	<s> contact robert
-1.301064	<s> contact william
-1.000034	<s> face alex
-1.000034	<s> face charlie
-1.301064	<s> face elizabeth
-1.000034	<s> face francis
-1.301064	<s> face jennifer
-1.301064	<s> face linda
-1.301064	<s> face mary
-1.301064	<s> face patricia
-1.000034	<s> face robin
-1.000034	<s> face skyler
-1.301064	<s> face james
-1.301064	<s> face john
-1.301064	<s> face michael
-1.301064	<s> face robert
-1.301064	<s> face william
-1.000034	<s> greet alex
-1.000034	<s> greet charlie
-1.301064	<s> greet elizabeth
-1.000034	<s> greet francis
-1.301064	<s> greet jennifer
-1.301064	<s> greet linda
-1.301064	<s> greet mary
-1.301064	<s> greet patricia
-1.000034	<s> greet robin
-1.000034	<s> greet skyler
-1.301064	<s> greet james
-1.301064	<s> greet john
-1.301064	<s> greet michael
-1.301064	<s> greet robert
-1.301064	<s> greet william
-2.776019	find the ambiguous
-0.6031663	find the any
-0.6073532	find the bowl
-0.6073532	find the cloth
-0.6073532	find the tray
-0.2663382	find three any
-0.0002313141	find alex at
-0.0002313141	find charlie at
-0.0004852003	find elizabeth at
-0.0002313141	find francis at
-0.0004852003	find jennifer at
-0.0004852003	find linda at
-0.0004852003	find mary at
-0.0004852003	find patricia at
-0.0002313141	find robin at
-0.0002313141	find skyler at
-0.0004852003	find james at
-0.0004852003	find john at
-0.0004852003	find michael at
-0.0004852003	find robert at
-0.0004852003	find william at
-0.001574863	find pron at
-2.776019	locate the ambiguous
-0.6031663	locate the any
-0.6073532	locate the bowl
-0.6073532	locate the cloth
-0.6073532	locate the tray
-0.2663382	locate three any
-0.0007386542	look for the
-2.772919	look for three
-0.6768178	tell me the
-0.7154048	tell me which
-0.4328582	tell me how
-0.7154048	tell me what''s
-0.5379662	tell the time
-0.2369361	tell the day
-0.08824224	tell a joke
-0.007445923	tell something about
-0.002136081	tell what day
-0.0009974644	tell your "team's"
-2.776019	for the ambiguous
-0.6031663	for the any
-0.6073532	for the bowl
-0.6073532	for the cloth
-0.6073532	for the tray
-0.2663382	for three any
-1.167746	me the any
-1.535063	me the bowl
-1.535063	me the cloth
-1.535063	me the tray
-0.822322	me the object
-1.299302	me the biggest
-1.299302	me the largest
-1.299302	me the smallest
-1.299302	me the heaviest
-1.299302	me the lightest
-1.299302	me the thinnest
-1.177071	me the a
-1.594754	me the left
-1.594754	me the right
-1.347964	me the name
-1.347964	me the gender
-1.347964	me the pose
-0.003225978	me which are
-0.0009527036	me how many
-0.002760221	me what''s the
-0.8600298	the three biggest
-0.8600298	the three largest
-0.8600298	the three smallest
-0.8600298	the three heaviest
-0.8600298	the three lightest
-0.8600298	the three thinnest
-0.03328795	the ambiguous any
-2.901392	the any category
-0.6656716	the any object
-0.1063461	the any placement
-2.315806	the bowl </s>
-2.192099	the bowl in
-2.31674	the bowl on
-1.362387	the bowl to
-0.02671343	the bowl ,
-2.315806	the cloth </s>
-2.192099	the cloth in
-2.31674	the cloth on
-1.362387	the cloth to
-0.02671343	the cloth ,
-2.315806	the tray </s>
-2.192099	the tray in
-2.31674	the tray on
-1.362387	the tray to
-0.02671343	the tray ,
-0.9119556	the object on
-0.6248535	the object at
-0.9266547	the object above
-0.9266547	the object behind
-0.9266547	the object under
-0.3334191	the biggest any
-0.3550966	the biggest object
-0.3334191	the largest any
-0.3550966	the largest object
-0.3334191	the smallest any
-0.3550966	the smallest object
-0.3334191	the heaviest any
-0.3550966	the heaviest object
-0.3334191	the lightest any
-0.3550966	the lightest object
-0.3334191	the thinnest any
-0.3550966	the thinnest object
-3.038943	the a object
-0.0003980188	the a room
-0.04802183	the kobject to
-0.04851082	the litter </s>
-0.04851082	the garbage </s>
-0.04851082	the trash </s>
-0.04851082	the waste </s>
-0.04851082	the debris </s>
-0.04851082	the junk </s>
-0.06539418	the left in
-1.290148	the left most
-1.290141	the left of
-0.06539418	the right in
-1.290148	the right most
-1.290141	the right of
-0.0001017469	the taxi </s>
-0.0001017469	the cab </s>
-0.0001017469	the uber </s>
-1.522029	the person in
-1.521634	the person at
-0.7262273	the person waving
-0.4251973	the person raising
-0.4251973	the person pointing
-0.3083853	the beacon </s>
-1.823953	the beacon to
-0.4260138	the beacon and
-0.9586525	the beacon ,
-2.073233	the beacon )
-1.003128	the time </s>
-0.05751779	the time to
-0.01114917	the day of
-1.230221e-06	the people in
-0.02158327	the name of
-0.02158327	the gender of
-0.02158327	the pose of
-1.003128	the week </s>
-0.05751779	the week to
-1.003128	the month </s>
-0.05751779	the month to
-4.805278e-06	the men in
-4.805278e-06	the women in
-0.3011038	the back entrance
-0.3011038	the back door
-0.3010317	the front entrance
-0.3010317	the front door
-0.3010317	the main entrance
-0.3010317	the main door
-0.3010317	the rear entrance
-0.3010317	the rear door
-1.264126e-06	the guests in
-1.264126e-06	the elders in
-1.264126e-06	the children in
-0.02734267	which are the
-0.1366527	three any category
-0.3702512	three biggest any
-0.5536048	three biggest objects
-0.3702512	three largest any
-0.5536048	three largest objects
-0.3702512	three smallest any
-0.5536048	three smallest objects
-0.3702512	three heaviest any
-0.5536048	three heaviest objects
-0.3702512	three lightest any
-0.5536048	three lightest objects
-0.3702512	three thinnest any
-0.5536048	three thinnest objects
-0.104218	ambiguous any object
-1.07512	how many any
-1.377885	how many bowl
-1.377885	how many cloth
-1.377885	how many tray
-0.1235884	how many people
-0.9722406	what''s the biggest
-0.9722406	what''s the largest
-0.9722406	what''s the smallest
-0.9722406	what''s the heaviest
-0.9722406	what''s the lightest
-0.9722406	what''s the thinnest
-0.7382286	any category in
-1.517332	any category there
-0.4381449	any category on
-0.3896227	any category from
-2.107172	any object </s>
-1.958597	any object in
-2.737138	any object there
-2.361412	any object on
-1.154031	any object to
-1.081099	any object from
-1.781759	any object and
-0.09431918	any object ,
-1.246507	any placement </s>
-1.779034	any placement and
-0.03307201	any placement ,
-0.03905136	are the three
-0.002708246	are on the
-0.1936608	are men </s>
-0.1936608	are women </s>
-0.05663222	are boys </s>
-0.05663222	are girls </s>
-0.05663222	are male </s>
-0.05663222	are female </s>
-0.05663222	are sitting </s>
-0.05663222	are standing </s>
-0.06061933	are lying down
-2.394067e-05	bowl in the
-0.04466444	bowl there are
-0.004919949	bowl on the
-0.8214708	bowl to me
-0.1099812	bowl to the
-0.0005915815	bowl , and
-2.394067e-05	cloth in the
-0.04466444	cloth there are
-0.004919949	cloth on the
-0.8214708	cloth to me
-0.1099812	cloth to the
-0.0005915815	cloth , and
-2.394067e-05	tray in the
-0.04466444	tray there are
-0.004919949	tray on the
-0.8214708	tray to me
-0.1099812	tray to the
-0.0005915815	tray , and
-0.6166759	many any category
-0.4540737	many any object
-0.3272673	many bowl there
-0.3272673	many cloth there
-0.3272673	many tray there
-4.20046e-05	many people in
-1.386674e-05	category in the
-0.04466444	category there are
-0.001262253	category on the
-0.0001615091	category from the
-1.386674e-05	object in the
-0.04466444	object there are
-0.08692742	object on the
-0.7480541	object on top
-7.544865e-06	object at the
-0.04402177	object above the
-0.04402177	object behind the
-0.04402177	object under the
-0.8017001	object to me
-0.09603461	object to the
-3.430171e-05	object from the
-0.397291	object and put
-0.397291	object and place
-0.0005915815	object , and
-0.1011418	biggest any category
-0.7231904	biggest object on
-0.3438386	biggest object from
-0.03809664	biggest objects on
-0.1011418	largest any category
-0.7231904	largest object on
-0.3438386	largest object from
-0.03809664	largest objects on
-0.1011418	smallest any category
-0.7231904	smallest object on
-0.3438386	smallest object from
-0.03809664	smallest objects on
-0.1011418	heaviest any category
-0.7231904	heaviest object on
-0.3438386	heaviest object from
-0.03809664	heaviest objects on
-0.1011418	lightest any category
-0.7231904	lightest object on
-0.3438386	lightest object from
-0.03809664	lightest objects on
-0.1011418	thinnest any category
-0.7231904	thinnest object on
-0.3438386	thinnest object from
-0.03809664	thinnest objects on
-8.266616e-05	in the a
-0.07822248	there are on
-0.08509914	a object from
-1.160643	a room </s>
-2.437084	a room are
-3.33952	a room to
-0.03301139	a room .
-0.0150052	a unknown question
-1.003128	a joke </s>
-0.05751779	a joke to
-0.2841799	on the </s>
-0.3340362	on the any
-0.05187932	on top of
-0.002327368	objects on the
-1.062608	room are men
-1.062608	room are women
-1.064347	room are boys
-1.064347	room are girls
-1.064347	room are male
-1.064347	room are female
-1.064347	room are sitting
-1.064347	room are standing
-1.064347	room are lying
-0.1224624	room to the
-2.495333e-08	room . </s>
-0.8864707	placement and bring
-0.8864707	placement and give
-0.8864708	placement and deliver
-0.6144971	placement and put
-0.6144971	placement and place
-0.4776626	placement , find
-0.4776626	placement , locate
-0.4776626	placement , look
-0.0115033	bring me the
-0.6879259	bring the any
-0.7192811	bring the bowl
-0.7192811	bring the cloth
-0.7192811	bring the tray
-1.172247	bring the a
-1.508276	bring the kobject
-0.05728571	bring any object
-3.667476e-05	bring it to
-0.7148314	bring my bag
-0.7148314	bring my baggage
-0.7148314	bring my valise
-0.7148314	bring my suitcase
-0.7148314	bring my trolley
-0.1784466	take the any
-0.9484704	take the a
-1.14927	take the kobject
-0.006808644	take out the
-0.2148786	take to the
-0.7148314	take my bag
-0.7148314	take my baggage
-0.7148314	take my valise
-0.7148314	take my suitcase
-0.7148314	take my trolley
-0.2288146	take alex to
-0.7051853	take alex from
-0.2288146	take charlie to
-0.7051853	take charlie from
-0.3110598	take elizabeth to
-0.7868253	take elizabeth from
-0.2288146	take francis to
-0.7051853	take francis from
-0.3110598	take jennifer to
-0.7868253	take jennifer from
-0.3110598	take linda to
-0.7868253	take linda from
-0.3110598	take mary to
-0.7868253	take mary from
-0.3110598	take patricia to
-0.7868253	take patricia from
-0.2288146	take robin to
-0.7051853	take robin from
-0.2288146	take skyler to
-0.7051853	take skyler from
-0.3110598	take james to
-0.7868253	take james from
-0.3110598	take john to
-0.7868253	take john from
-0.3110598	take michael to
-0.7868253	take michael from
-0.3110598	take robert to
-0.7868253	take robert from
-0.3110598	take william to
-0.7868253	take william from
-0.8046289	take pron </s>
-0.1021188	take pron to
-1.281751	take pron back
-0.0115033	give me the
-0.6426574	give the any
-0.6639341	give the bowl
-0.6639341	give the cloth
-0.6639341	give the tray
-0.05728571	give any object
-3.667476e-05	give it to
-0.001471516	give drinks to
-0.001471516	give snacks to
-0.02422174	clean out the
-0.01591293	clean up the
-0.01591293	tidy up the
-0.2263872	neaten the a
-0.2263872	order the a
-1.081163	dump the litter
-1.081163	dump the garbage
-1.081163	dump the trash
-1.081163	dump the waste
-1.081163	dump the debris
-1.081163	dump the junk
-0.7763293	out the a
-1.148072	out the litter
-1.148072	out the garbage
-1.148072	out the trash
-1.148072	out the waste
-1.148072	out the debris
-1.148072	out the junk
-0.1503659	up the any
-0.7389794	up the a
-0.1231656	kobject to the
-2.558025e-06	left in the
-0.03032457	left most object
-0.003362456	left of the
-0.000183225	left arm in
-2.558025e-06	right in the
-0.03032457	right most object
-0.003362456	right of the
-0.000183225	right arm in
-3.698264	at the left
-3.698264	at the right
-0.2217611	at the beacon
-1.000959	at the back
-1.000959	at the front
-1.000959	at the main
-1.000959	at the rear
-0.1573817	above the any
-0.1573817	behind the any
-0.1573817	under the any
-0.002291591	to me </s>
-0.2766813	to the any
-1.436725	to the a
-1.948462	to the left
-1.948462	to the right
-2.470977	to the taxi
-2.470977	to the cab
-2.470977	to the uber
-1.249501	to the person
-0.4628973	to the beacon
-0.0001297077	to alex at
-0.0001297077	to charlie at
-0.0002727643	to elizabeth at
-0.0001297077	to francis at
-0.0002727643	to jennifer at
-0.0002727643	to linda at
-0.0002727643	to mary at
-0.0002727643	to patricia at
-0.0001297077	to robin at
-0.0001297077	to skyler at
-0.0002727643	to james at
-0.0002727643	to john at
-0.0002727643	to michael at
-0.0002727643	to robert at
-0.0002727643	to william at
-1.264126e-06	to everyone in
-3.097556e-08	to all the
-7.901601e-05	to leave </s>
-0.4771247	to pron_pos taxi
-0.4771247	to pron_pos cab
-0.4771247	to pron_pos uber
-0.08566055	most object from
-0.003362456	top of the
-0.8042466	of the any
-0.5771756	of the person
-0.6116021	of the week
-0.6116021	of the month
-0.4132186	from the any
-1.847212	from the a
-0.2270041	from the beacon
-0.04134168	get the any
-0.04134168	grasp the any
-0.003128021	pick up the
-0.6426574	deliver the any
-0.6639341	deliver the bowl
-0.6639341	deliver the cloth
-0.6639341	deliver the tray
-0.05728571	deliver any object
-3.667476e-05	deliver it to
-0.001471516	deliver drinks to
-0.001471516	deliver snacks to
-0.764502	put the any
-0.873142	put the bowl
-0.873142	put the cloth
-0.873142	put the tray
-0.01140606	put it on
-0.764502	place the any
-0.873142	place the bowl
-0.873142	place the cloth
-0.873142	place the tray
-0.01140606	place it on
-0.0003224627	go to the
-0.0003224627	navigate to the
-0.0002012696	it on the
-1.279121	it to me
-1.026828	it to alex
-1.026828	it to charlie
-1.327858	it to elizabeth
-1.026828	it to francis
-1.327858	it to jennifer
-1.327858	it to linda
-1.327858	it to mary
-1.327858	it to patricia
-1.026828	it to robin
-1.026828	it to skyler
-1.327858	it to james
-1.327858	it to john
-1.327858	it to michael
-1.327858	it to robert
-1.327858	it to william
-0.008356259	my bag to
-0.008356259	my baggage to
-0.008356259	my valise to
-0.008356259	my suitcase to
-0.008356259	my trolley to
-0.04835131	bag to the
-0.04835131	baggage to the
-0.04835131	valise to the
-0.04835131	suitcase to the
-0.04835131	trolley to the
-3.87037e-08	alex at the
-0.0117534	alex to the
-0.0001789595	alex from the
-0.8490484	alex and take
-0.8490487	alex and guide
-0.8490487	alex and escort
-0.8490487	alex and lead
-0.8490487	alex and accompany
-0.005808834	alex , and
-3.87037e-08	charlie at the
-0.0117534	charlie to the
-0.0001789595	charlie from the
-0.8490484	charlie and take
-0.8490487	charlie and guide
-0.8490487	charlie and escort
-0.8490487	charlie and lead
-0.8490487	charlie and accompany
-0.005808834	charlie , and
-7.732742e-08	elizabeth at the
-0.02297671	elizabeth to the
-0.000329622	elizabeth from the
-0.9426245	elizabeth and take
-0.9426251	elizabeth and guide
-0.9426251	elizabeth and escort
-0.9426251	elizabeth and lead
-0.9426251	elizabeth and accompany
-0.01140702	elizabeth , and
-3.87037e-08	francis at the
-0.0117534	francis to the
-0.0001789595	francis from the
-0.8490484	francis and take
-0.8490487	francis and guide
-0.8490487	francis and escort
-0.8490487	francis and lead
-0.8490487	francis and accompany
-0.005808834	francis , and
-7.732742e-08	jennifer at the
-0.02297671	jennifer to the
-0.000329622	jennifer from the
-0.9426245	jennifer and take
-0.9426251	jennifer and guide
-0.9426251	jennifer and escort
-0.9426251	jennifer and lead
-0.9426251	jennifer and accompany
-0.01140702	jennifer , and
-7.732742e-08	linda at the
-0.02297671	linda to the
-0.000329622	linda from the
-0.9426245	linda and take
-0.9426251	linda and guide
-0.9426251	linda and escort
-0.9426251	linda and lead
-0.9426251	linda and accompany
-0.01140702	linda , and
-7.732742e-08	mary at the
-0.02297671	mary to the
-0.000329622	mary from the
-0.9426245	mary and take
-0.9426251	mary and guide
-0.9426251	mary and escort
-0.9426251	mary and lead
-0.9426251	mary and accompany
-0.01140702	mary , and
-7.732742e-08	patricia at the
-0.02297671	patricia to the
-0.000329622	patricia from the
-0.9426245	patricia and take
-0.9426251	patricia and guide
-0.9426251	patricia and escort
-0.9426251	patricia and lead
-0.9426251	patricia and accompany
-0.01140702	patricia , and
-3.87037e-08	robin at the
-0.0117534	robin to the
-0.0001789595	robin from the
-0.8490484	robin and take
-0.8490487	robin and guide
-0.8490487	robin and escort
-0.8490487	robin and lead
-0.8490487	robin and accompany
-0.005808834	robin , and
-3.87037e-08	skyler at the
-0.0117534	skyler to the
-0.0001789595	skyler from the
-0.8490484	skyler and take
-0.8490487	skyler and guide
-0.8490487	skyler and escort
-0.8490487	skyler and lead
-0.8490487	skyler and accompany
-0.005808834	skyler , and
-7.732742e-08	james at the
-0.02297671	james to the
-0.000329622	james from the
-0.9426245	james and take
-0.9426251	james and guide
-0.9426251	james and escort
-0.9426251	james and lead
-0.9426251	james and accompany
-0.01140702	james , and
-7.732742e-08	john at the
-0.02297671	john to the
-0.000329622	john from the
-0.9426245	john and take
-0.9426251	john and guide
-0.9426251	john and escort
-0.9426251	john and lead
-0.9426251	john and accompany
-0.01140702	john , and
-7.732742e-08	michael at the
-0.02297671	michael to the
-0.000329622	michael from the
-0.9426245	michael and take
-0.9426251	michael and guide
-0.9426251	michael and escort
-0.9426251	michael and lead
-0.9426251	michael and accompany
-0.01140702	michael , and
-7.732742e-08	robert at the
-0.02297671	robert to the
-0.000329622	robert from the
-0.9426245	robert and take
-0.9426251	robert and guide
-0.9426251	robert and escort
-0.9426251	robert and lead
-0.9426251	robert and accompany
-0.01140702	robert , and
-7.732742e-08	william at the
-0.02297671	william to the
-0.000329622	william from the
-0.9426245	william and take
-0.9426251	william and guide
-0.9426251	william and escort
-0.9426251	william and lead
-0.9426251	william and accompany
-0.01140702	william , and
-0.0001089144	and bring it
-0.0003432403	and take pron
-0.0001044764	and give it
-6.953977e-05	and deliver it
-0.001679902	and put it
-0.001679902	and place it
-2.176899e-05	and go to
-2.176899e-05	and navigate to
-0.001782562	and follow pron
-0.0002662025	and guide pron
-0.0002662025	and escort pron
-0.0002662025	and lead pron
-0.0002662025	and accompany pron
-8.015679e-05	and ask pron
-1.426563e-08	and introduce pron
-1.386674e-05	person in the
-5.928669e-06	person at the
-0.0003611686	person waving in
-9.549295e-05	person raising their
-8.879474e-05	person pointing to
-2.558025e-06	waving in the
-0.3014008	raising their left
-0.3014008	raising their right
-0.004765281	pointing to the
-0.0006557719	, find the
-4.120846e-06	, locate the
-1.584388e-06	, look for
-0.6166312	, and bring
-1.369033	, and take
-0.6166312	, and give
-0.6166312	, and deliver
-1.938536	, and put
-1.938536	, and place
-2.069784	, and go
-2.069784	, and navigate
-1.768438	, and follow
-1.369033	, and guide
-1.369033	, and escort
-1.369033	, and lead
-1.369033	, and accompany
-0.0007712104	, follow pron
-1.000312	, meet alex
-1.000312	, meet charlie
-1.301342	, meet elizabeth
-1.000312	, meet francis
-1.301342	, meet jennifer
-1.301342	, meet linda
-1.301342	, meet mary
-1.301342	, meet patricia
-1.000312	, meet robin
-1.000312	, meet skyler
-1.301342	, meet james
-1.301342	, meet john
-1.301342	, meet michael
-1.301342	, meet robert
-1.301342	, meet william
-0.4771754	, you may
-0.4771754	, you can
-0.4771754	, you will
-0.00708303	their left arm
-0.00708303	their right arm
-0.002990321	beacon to the
-1.062879	beacon and take
-2.176218	beacon and follow
-1.062879	beacon and guide
-1.062879	beacon and escort
-1.062879	beacon and lead
-1.062879	beacon and accompany
-1.574944	beacon and ask
-0.2728149	beacon and introduce
-0.7997287	beacon , follow
-0.3024039	beacon , meet
-0.4687353	beacon , you
-0.000110126	beacon ) </s>
-1.297979e-06	arm in the
-0.08836344	answer a unknown
-0.5379662	say the time
-0.2369361	say the day
-0.08824224	say a joke
-0.007445923	say something about
-0.002136081	say what day
-0.0009974644	say your "team's"
-0.01393015	unknown question to
-0.003711164	something about yourself
-0.01114928	what day is
-0.480832	your "team's" nme
-0.480832	your "team's" country
-0.480832	your "team's" affiliation
-0.06328482	question to the
-1.003128	about yourself </s>
-0.05751779	about yourself to
-0.03370849	time to the
-0.0004828706	day of the
-0.3047409	day is today
-0.3047409	day is tomorrow
-1.003128	"team's" nme </s>
-0.05751779	"team's" nme to
-1.003128	"team's" country </s>
-0.05751779	"team's" country to
-1.003128	"team's" affiliation </s>
-0.05751779	"team's" affiliation to
-0.03370849	joke to the
-1.473081e-07	people in the
-0.03370849	yourself to the
-1.003128	is today </s>
-0.05751779	is today to
-1.003128	is tomorrow </s>
-0.05751779	is tomorrow to
-0.03370849	nme to the
-0.03370849	country to the
-0.03370849	affiliation to the
-0.002203466	name of the
-0.002203466	gender of the
-0.002203466	pose of the
-0.03370849	today to the
-0.03370849	tomorrow to the
-0.03370849	week to the
-0.03370849	month to the
-1.513679e-07	men in the
-1.513679e-07	women in the
-0.05663222	lying down </s>
-0.494499	follow alex </s>
-0.490591	follow alex from
-0.494499	follow charlie </s>
-0.490591	follow charlie from
-0.6270224	follow elizabeth </s>
-0.6196348	follow elizabeth from
-0.494499	follow francis </s>
-0.490591	follow francis from
-0.6270224	follow jennifer </s>
-0.6196348	follow jennifer from
-0.6270224	follow linda </s>
-0.6196348	follow linda from
-0.6270224	follow mary </s>
-0.6196348	follow mary from
-0.6270224	follow patricia </s>
-0.6196348	follow patricia from
-0.494499	follow robin </s>
-0.490591	follow robin from
-0.494499	follow skyler </s>
-0.490591	follow skyler from
-0.6270224	follow james </s>
-0.6196348	follow james from
-0.6270224	follow john </s>
-0.6196348	follow john from
-0.6270224	follow michael </s>
-0.6196348	follow michael from
-0.6270224	follow robert </s>
-0.6196348	follow robert from
-0.6270224	follow william </s>
-0.6196348	follow william from
-0.5132626	follow pron to
-0.1596657	follow pron ,
-0.4573181	meet alex at
-0.9198323	meet alex and
-0.2764208	meet alex ,
-0.4573181	meet charlie at
-0.9198323	meet charlie and
-0.2764208	meet charlie ,
-0.4311768	meet elizabeth at
-0.9357826	meet elizabeth and
-0.2924933	meet elizabeth ,
-0.4573181	meet francis at
-0.9198323	meet francis and
-0.2764208	meet francis ,
-0.4311768	meet jennifer at
-0.9357826	meet jennifer and
-0.2924933	meet jennifer ,
-0.4311768	meet linda at
-0.9357826	meet linda and
-0.2924933	meet linda ,
-0.4311768	meet mary at
-0.9357826	meet mary and
-0.2924933	meet mary ,
-0.4311768	meet patricia at
-0.9357826	meet patricia and
-0.2924933	meet patricia ,
-0.4573181	meet robin at
-0.9198323	meet robin and
-0.2764208	meet robin ,
-0.4573181	meet skyler at
-0.9198323	meet skyler and
-0.2764208	meet skyler ,
-0.4311768	meet james at
-0.9357826	meet james and
-0.2924933	meet james ,
-0.4311768	meet john at
-0.9357826	meet john and
-0.2924933	meet john ,
-0.4311768	meet michael at
-0.9357826	meet michael and
-0.2924933	meet michael ,
-0.4311768	meet robert at
-0.9357826	meet robert and
-0.2924933	meet robert ,
-0.4311768	meet william at
-0.9357826	meet william and
-0.2924933	meet william ,
-1.403674e-07	pron at the
-1.325443	pron to the
-1.683167	pron to alex
-1.683167	pron to charlie
-1.984197	pron to elizabeth
-1.683167	pron to francis
-1.984197	pron to jennifer
-1.984197	pron to linda
-1.984197	pron to mary
-1.984197	pron to patricia
-1.683167	pron to robin
-1.683167	pron to skyler
-1.984197	pron to james
-1.984197	pron to john
-1.984197	pron to michael
-1.984197	pron to robert
-1.984197	pron to william
-1.081913	pron to everyone
-0.3037621	pron to all
-1.985018	pron to leave
-0.8089267	pron to pron_pos
-0.001849079	pron , and
-0.00447666	pron back </s>
-0.2148786	guide to the
-0.2288146	guide alex to
-0.7051853	guide alex from
-0.2288146	guide charlie to
-0.7051853	guide charlie from
-0.3110598	guide elizabeth to
-0.7868253	guide elizabeth from
-0.2288146	guide francis to
-0.7051853	guide francis from
-0.3110598	guide jennifer to
-0.7868253	guide jennifer from
-0.3110598	guide linda to
-0.7868253	guide linda from
-0.3110598	guide mary to
-0.7868253	guide mary from
-0.3110598	guide patricia to
-0.7868253	guide patricia from
-0.2288146	guide robin to
-0.7051853	guide robin from
-0.2288146	guide skyler to
-0.7051853	guide skyler from
-0.3110598	guide james to
-0.7868253	guide james from
-0.3110598	guide john to
-0.7868253	guide john from
-0.3110598	guide michael to
-0.7868253	guide michael from
-0.3110598	guide robert to
-0.7868253	guide robert from
-0.3110598	guide william to
-0.7868253	guide william from
-0.8046289	guide pron </s>
-0.1021188	guide pron to
-1.281751	guide pron back
-0.2148786	escort to the
-0.2288146	escort alex to
-0.7051853	escort alex from
-0.2288146	escort charlie to
-0.7051853	escort charlie from
-0.3110598	escort elizabeth to
-0.7868253	escort elizabeth from
-0.2288146	escort francis to
-0.7051853	escort francis from
-0.3110598	escort jennifer to
-0.7868253	escort jennifer from
-0.3110598	escort linda to
-0.7868253	escort linda from
-0.3110598	escort mary to
-0.7868253	escort mary from
-0.3110598	escort patricia to
-0.7868253	escort patricia from
-0.2288146	escort robin to
-0.7051853	escort robin from
-0.2288146	escort skyler to
-0.7051853	escort skyler from
-0.3110598	escort james to
-0.7868253	escort james from
-0.3110598	escort john to
-0.7868253	escort john from
-0.3110598	escort michael to
-0.7868253	escort michael from
-0.3110598	escort robert to
-0.7868253	escort robert from
-0.3110598	escort william to
-0.7868253	escort william from
-0.8046289	escort pron </s>
-0.1021188	escort pron to
-1.281751	escort pron back
-0.2148786	lead to the
-0.2288146	lead alex to
-0.7051853	lead alex from
-0.2288146	lead charlie to
-0.7051853	lead charlie from
-0.3110598	lead elizabeth to
-0.7868253	lead elizabeth from
-0.2288146	lead francis to
-0.7051853	lead francis from
-0.3110598	lead jennifer to
-0.7868253	lead jennifer from
-0.3110598	lead linda to
-0.7868253	lead linda from
-0.3110598	lead mary to
-0.7868253	lead mary from
-0.3110598	lead patricia to
-0.7868253	lead patricia from
-0.2288146	lead robin to
-0.7051853	lead robin from
-0.2288146	lead skyler to
-0.7051853	lead skyler from
-0.3110598	lead james to
-0.7868253	lead james from
-0.3110598	lead john to
-0.7868253	lead john from
-0.3110598	lead michael to
-0.7868253	lead michael from
-0.3110598	lead robert to
-0.7868253	lead robert from
-0.3110598	lead william to
-0.7868253	lead william from
-0.8046289	lead pron </s>
-0.1021188	lead pron to
-1.281751	lead pron back
-0.2148786	accompany to the
-0.2288146	accompany alex to
-0.7051853	accompany alex from
-0.2288146	accompany charlie to
-0.7051853	accompany charlie from
-0.3110598	accompany elizabeth to
-0.7868253	accompany elizabeth from
-0.2288146	accompany francis to
-0.7051853	accompany francis from
-0.3110598	accompany jennifer to
-0.7868253	accompany jennifer from
-0.3110598	accompany linda to
-0.7868253	accompany linda from
-0.3110598	accompany mary to
-0.7868253	accompany mary from
-0.3110598	accompany patricia to
-0.7868253	accompany patricia from
-0.2288146	accompany robin to
-0.7051853	accompany robin from
-0.2288146	accompany skyler to
-0.7051853	accompany skyler from
-0.3110598	accompany james to
-0.7868253	accompany james from
-0.3110598	accompany john to
-0.7868253	accompany john from
-0.3110598	accompany michael to
-0.7868253	accompany michael from
-0.3110598	accompany robert to
-0.7868253	accompany robert from
-0.3110598	accompany william to
-0.7868253	accompany william from
-0.8046289	accompany pron </s>
-0.1021188	accompany pron to
-1.281751	accompany pron back
-4.160404e-07	back entrance and
-4.160404e-07	back door and
-0.001471516	serve drinks to
-0.001471516	serve snacks to
-0.001471516	arrange drinks to
-0.001471516	arrange snacks to
-0.001471516	distribute drinks to
-0.001471516	distribute snacks to
-0.001471516	provide drinks to
-0.001471516	provide snacks to
-0.0002313141	contact alex at
-0.0002313141	contact charlie at
-0.0004852003	contact elizabeth at
-0.0002313141	contact francis at
-0.0004852003	contact jennifer at
-0.0004852003	contact linda at
-0.0004852003	contact mary at
-0.0004852003	contact patricia at
-0.0002313141	contact robin at
-0.0002313141	contact skyler at
-0.0004852003	contact james at
-0.0004852003	contact john at
-0.0004852003	contact michael at
-0.0004852003	contact robert at
-0.0004852003	contact william at
-0.0002313141	face alex at
-0.0002313141	face charlie at
-0.0004852003	face elizabeth at
-0.0002313141	face francis at
-0.0004852003	face jennifer at
-0.0004852003	face linda at
-0.0004852003	face mary at
-0.0004852003	face patricia at
-0.0002313141	face robin at
-0.0002313141	face skyler at
-0.0004852003	face james at
-0.0004852003	face john at
-0.0004852003	face michael at
-0.0004852003	face robert at
-0.0004852003	face william at
-0.0002313141	greet alex at
-0.0002313141	greet charlie at
-0.0004852003	greet elizabeth at
-0.0002313141	greet francis at
-0.0004852003	greet jennifer at
-0.0004852003	greet linda at
-0.0004852003	greet mary at
-0.0004852003	greet patricia at
-0.0002313141	greet robin at
-0.0002313141	greet skyler at
-0.0004852003	greet james at
-0.0004852003	greet john at
-0.0004852003	greet michael at
-0.0004852003	greet robert at
-0.0004852003	greet william at
-0.8594657	drinks to everyone
-0.08131432	drinks to all
-0.8594657	snacks to everyone
-0.08131432	snacks to all
-1.513679e-07	everyone in the
-0.7787884	all the people
-0.7787884	all the men
-0.7787884	all the women
-0.7787884	all the guests
-0.7787884	all the elders
-0.7787884	all the children
-4.160404e-07	front entrance and
-4.160404e-07	front door and
-4.160404e-07	main entrance and
-4.160404e-07	main door and
-4.160404e-07	rear entrance and
-4.160404e-07	rear door and
-1.513679e-07	guests in the
-1.513679e-07	elders in the
-1.513679e-07	children in the
-8.546959e-05	entrance and introduce
-8.546959e-05	door and introduce
-0.0005971109	ask pron to
-7.960783e-06	introduce pron to
-3.143675e-06	pron_pos taxi </s>
-3.143675e-06	pron_pos cab </s>
-3.143675e-06	pron_pos uber </s>
-5.335762e-05	you may find
-5.335762e-05	you can find
-5.335762e-05	you will find
-0.004342334	may find pron
-0.004342334	can find pron
-0.004342334	will find pron

\end\
