
\data\
ngram 1=377
ngram 2=1813
ngram 3=5504

\1-grams:
-99	<s>	-5.693683
-1.143008	</s>
-1.744533	find	-4.933475
-2.507117	locate	-5.536495
-2.507117	look	-5.789349
-4.885201	tell	-2.634163
-2.507039	for	-5.162301
-2.406326	me	-4.803317
-0.8859189	the	-5.317545
-5.363517	which	-2.457334
-5.312763	three	-1.814324
-5.655568	cleaning	-2.641889
-5.655568	containers	-2.042781
-5.655568	cutlery	-2.042781
-5.501751	drinks	-2.099209
-5.655568	food	-2.042781
-5.655568	fruits	-2.042781
-5.501751	snacks	-2.099209
-5.655568	tableware	-2.042781
-5.378116	how	-2.318396
-5.386549	whats	-2.91045
-5.099216	are	-2.02528
-3.072839	cloth	-4.373698
-3.272534	scrubby	-4.175067
-3.272534	sponge	-4.175067
-3.272534	cascade	-5.023936
-3.072839	tray	-4.373698
-3.272534	basket	-4.175067
-3.272509	bag	-4.178121
-3.272534	fork	-4.175067
-3.272534	knife	-4.175067
-3.272534	spoon	-4.175067
-3.272534	chocolate	-5.023936
-3.272534	coke	-4.175067
-3.272534	grape	-5.023936
-2.971504	orange	-4.425612
-3.272534	sprite	-4.175067
-3.272534	cereal	-4.175067
-3.272534	noodles	-4.175067
-3.272534	sausages	-4.175067
-3.272443	apple	-4.122162
-3.272534	paprika	-4.175067
-3.272534	pringles	-4.175067
-3.272534	crackers	-4.175067
-3.272534	potato	-5.023936
-3.272534	dish	-4.175067
-3.072839	bowl	-4.373698
-3.272534	cup	-4.175067
-5.655568	stuff	-2.042781
-5.440372	many	-1.309717
-3.272534	pod	-4.175067
-3.272534	drink	-4.175067
-2.971504	juice	-4.479166
-3.272534	chips	-4.175067
-5.537705	biggest	-1.766263
-5.52127	largest	-1.741745
-5.537705	smallest	-1.766263
-5.537705	heaviest	-1.766263
-5.537705	lightest	-1.766263
-5.537705	thinnest	-1.766263
-2.630841	in	-4.816786
-4.532148	object	-2.9867
-5.52267	there	-2.474232
-3.239437	corridor	-4.584776
-3.239437	bedroom	-4.584776
-1.971825	dining	-5.857001
-3.239437	living	-5.057032
-3.239437	kitchen	-4.584776
-3.394189	on	-4.297413
-6.340792	objects	-1.960456
-2.938407	room	-4.890811
-2.734636	side	-5.561831
-1.995934	desk	-5.318663
-1.958006	end	-6.338459
-1.923127	bookcase	-5.400248
-2.734636	cupboard	-4.880638
-2.558544	storage	-5.737922
-1.995934	sink	-5.318663
-2.734636	counter	-4.880638
-1.589812	table	-5.632377
-2.30093	bring	-4.524444
-2.048874	take	-4.649639
-2.302115	give	-4.505136
-7.300876	clean	-0.7744791
-7.601906	tidy	-0.7744789
-7.601906	neaten	-0.7744789
-7.601906	order	-0.7744789
-7.522725	dump	-0.8413203
-7.259483	out	-1.07514
-2.828956	up	-5.467511
-7.999846	litter	-0.4741858
-7.999846	garbage	-0.4741858
-7.999846	trash	-0.4741858
-7.999846	waste	-0.4741858
-7.999846	debris	-0.4741858
-7.999846	junk	-0.4741858
-4.79449	left	-2.900619
-4.79449	right	-2.900619
-1.069017	at	-7.227449
-5.338033	above	-2.95891
-5.338033	behind	-2.95891
-5.338033	under	-2.95891
-1.092988	to	-5.56807
-6.248894	most	-1.581972
-5.338033	top	-2.95891
-4.815146	of	-3.004796
-2.219963	from	-5.930295
-2.828971	get	-5.467496
-2.828971	grasp	-5.467496
-2.828971	pick	-5.467496
-3.7127	put	-4.281675
-3.7127	place	-4.281675
-2.303958	deliver	-4.517435
-2.221707	go	-6.074759
-2.221707	navigate	-6.074759
-2.420826	my	-4.776586
-7.51949	baggage	-0.8440901
-7.51949	valise	-0.8440901
-7.51949	suitcase	-0.8440901
-7.51949	trolley	-0.8440901
-1.163133	and	-5.785711
-2.023874	taxi	-6.272591
-2.023874	cab	-6.272591
-2.023874	uber	-6.272591
-4.541537	person	-3.056357
-5.248351	waving	-3.048503
-4.94732	raising	-3.349339
-4.94732	pointing	-3.349339
-1.720014	it	-5.653539
-2.419552	their	-4.863116
-4.94732	arm	-3.349339
-2.056377	alex	-5.522976
-2.056377	charlie	-5.522976
-2.357407	elizabeth	-5.237362
-2.056377	francis	-5.522976
-2.357407	jennifer	-5.237362
-2.357407	linda	-5.237362
-2.357407	mary	-5.237362
-2.357407	patricia	-5.237362
-2.056377	robin	-5.522976
-2.056377	skyler	-5.522976
-2.357407	james	-5.237362
-2.357407	john	-5.237362
-2.357407	michael	-5.237362
-2.357407	robert	-5.237362
-2.357407	william	-5.237362
-1.986102	entrance	-5.457518
-2.037493	bed	-5.479583
-2.037493	exit	-5.479583
-2.037493	couch	-5.479583
-2.037493	dishwasher	-5.479583
-5.252482	answer	-3.044375
-5.951452	say	-1.655746
-5.172978	a	-1.788201
-6.951452	who's	-1.364206
-6.474331	what's	-1.828627
-6.474331	where	-1.533993
-5.718729	what	-1.740604
-6.106354	who	-1.599125
-6.474331	why	-1.533993
-6.474331	when	-1.828627
-2.98757	can	-4.829676
-6.091436	name	-1.519397
-6.650422	do	-1.364206
-5.607271	is	-1.620543
-6.640836	something	-1.665122
-2.420764	your	-4.928229
-6.467917	about	-1.540218
-6.248622	time	-1.582237
-6.038776	day	-1.961432
-6.163715	teams	-1.665127
-6.640836	joke	-1.373382
-3.48163	people	-4.814842
-6.951452	long	-1.364206
-5.951452	was	-2.047888
-6.650422	year	-1.655746
-6.467917	country	-1.370342
-6.951452	coined	-1.364206
-6.474331	big	-1.533993
-6.951452	else	-1.364206
-2.420817	i	-4.895445
-6.951452	small	-1.364206
-6.951452	wasn't	-1.364206
-6.650422	does	-1.364206
-2.703984	all	-5.321564
-2.162344	you	-5.037387
-6.951452	self-driving	-1.364206
-6.951452	invented	-1.364206
-6.650422	created	-1.655746
-6.951452	mark	-1.364206
-6.951452	program	-1.364206
-6.640836	yourself	-1.373382
-6.640836	affiliation	-1.373382
-6.872271	gender	-1.440247
-6.872271	pose	-1.440247
-6.951452	longest	-1.364206
-6.951452	holds	-1.364206
-6.106354	canada	-1.721323
-6.650422	tons	-1.655746
-6.650422	canada's	-1.655746
-6.951452	origin	-1.364206
-6.951452	tron	-1.364206
-6.951452	captcha	-1.364206
-6.951452	moravec's	-1.364206
-6.951452	elon	-1.364206
-6.951452	think	-1.364206
-6.951452	cars	-1.364206
-6.951452	considered	-1.364206
-6.640836	today	-1.373382
-6.640836	tomorrow	-1.373382
-6.951452	handsome	-1.364206
-6.951452	zones	-1.364206
-6.650422	street	-1.655746
-6.951452	yonge	-1.364206
-6.951452	blackberry	-1.364206
-6.650422	world's	-1.364206
-6.951452	term	-1.364206
-6.951452	montreal	-1.364206
-6.951452	visit	-1.364206
-6.650422	nanobot	-1.364206
-6.048362	first	-1.655746
-6.951452	mechanical	-1.364206
-6.951452	ai	-1.364206
-6.650422	robots	-1.364206
-6.951452	chatbot	-1.364206
-6.951452	safe	-1.364206
-6.951452	compiler	-1.364206
-6.951452	c	-1.364206
-6.951452	python	-1.364206
-6.951452	zuckerberg	-1.364206
-6.951452	inventor	-1.364206
-6.951452	jedi	-1.364206
-6.640836	week	-1.373382
-6.640836	month	-1.373382
-6.951452	record	-1.364206
-6.951452	beatlemania	-1.364206
-6.951452	named	-1.364206
-6.650422	mounted	-1.655746
-6.951452	royal	-1.364206
-6.951452	rcmp	-1.364206
-6.349392	hotel	-1.951952
-6.951452	ice	-1.364206
-6.951452	snow	-1.364206
-6.650422	only	-1.655746
-6.951452	nominated	-1.364206
-6.252482	computer	-1.457345
-6.951452	stands	-1.364206
-6.951452	paradox	-1.364206
-6.951452	musk	-1.364206
-6.650422	be	-1.364206
-6.951452	bear	-1.364206
-6.951452	smartphone	-1.364206
-6.951452	coin	-1.364206
-6.650422	invaded	-1.655746
-6.951452	called	-1.364206
-6.650422	desert	-1.655746
-6.650422	famous	-1.364206
-6.951452	comic	-1.364206
-6.650422	with	-1.655746
-6.474331	hard	-1.828627
-6.951452	bug	-1.364206
-6.951452	android	-1.364206
-6.951452	knight	-1.364206
-6.951452	state	-1.364206
-6.951452	knowledge	-1.364206
-6.650422	programming	-1.655746
-6.951452	use	-1.364206
-6.951452	world	-1.364206
-6.951452	cub	-1.364206
-6.474331	by	-1.828627
-6.650422	police	-1.655746
-6.951452	canadian	-1.364206
-6.349392	de	-1.951952
-6.650422	required	-1.655746
-6.805324	male	-1.217277
-6.805324	female	-1.217277
-6.951452	an	-1.364206
-6.474331	disk	-1.828627
-6.951452	mars	-1.364206
-6.951452	pass	-1.364206
-6.951452	engineering	-1.364206
-6.951452	threat	-1.364206
-6.951452	robot	-1.364206
-6.951452	exported	-1.364206
-6.951452	developed	-1.364206
-6.349392	glace	-1.484425
-6.650422	canadians	-1.655746
-6.951452	sans	-1.364206
-6.951452	award	-1.364206
-6.474331	drive	-1.533993
-6.951452	bottleneck	-1.364206
-6.951452	worried	-1.364206
-6.650422	language	-1.655746
-6.951452	open	-1.364206
-3.482101	men	-4.518394
-3.482101	women	-4.518394
-7.349392	boys	-0.993553
-7.349392	girls	-0.993553
-7.349392	sitting	-0.993553
-7.349392	standing	-0.993553
-7.349392	lying	-0.993553
-6.951452	ontario	-1.364206
-6.650422	usa	-1.655746
-6.951452	gold	-1.364206
-6.650422	formed	-1.655746
-6.650422	build	-1.655746
-6.951452	turing	-1.364206
-6.650422	humanity	-1.655746
-6.951452	programmer	-1.364206
-6.951452	pdf	-1.364206
-7.349392	down	-0.993553
-6.951452	medals	-1.364206
-6.951452	located	-1.364206
-6.951452	font	-1.364206
-6.951452	ai's	-1.364206
-6.951452	launched	-1.364206
-6.951452	test	-1.364206
-6.951452	microcomputer	-1.364206
-6.951452	files	-1.364206
-6.951452	summer	-1.364206
-6.951452	motion	-1.364206
-6.951452	impact	-1.364206
-6.951452	second	-1.364206
-6.951452	winter	-1.364206
-6.951452	london	-1.364206
-6.951452	picture	-1.364206
-6.951452	olympics	-1.364206
-6.951452	zoo	-1.364206
-6.951452	academy	-1.364206
-6.951452	one	-1.364206
-6.951452	thousand	-1.364206
-6.951452	nine	-1.364206
-6.951452	hundred	-1.364206
-6.951452	fifteen	-1.364206
-2.539819	follow	-4.179891
-2.20879	meet	-4.91868
-2.420843	he	-4.948279
-2.420843	she	-4.948279
-2.420843	we	-4.948279
-2.420843	they	-4.948279
-2.420843	him	-4.948279
-2.420843	her	-4.948279
-2.420843	its	-4.948279
-2.420843	us	-4.948279
-2.420843	them	-4.948279
-2.420843	mine	-4.948279
-2.420843	yours	-4.948279
-2.420843	his	-4.948279
-2.420843	hers	-4.948279
-2.420843	ours	-4.948279
-2.420843	theirs	-4.948279
-2.420843	our	-4.948279
-2.128482	guide	-4.569557
-2.128482	escort	-4.569557
-2.128482	lead	-4.569557
-2.128482	accompany	-4.569557
-2.531298	back	-5.26995
-6.504294	serve	-1.504936
-6.504294	arrange	-1.504936
-6.504294	distribute	-1.504936
-6.504294	provide	-1.504936
-1.927722	contact	-5.165465
-1.927722	face	-5.165465
-1.927722	greet	-5.165465
-3.482161	everyone	-4.814311
-3.239476	front	-4.767875
-3.239476	main	-4.767875
-3.239476	rear	-4.767875
-3.482161	guests	-4.814311
-3.482161	elders	-4.814311
-3.482161	children	-4.814311
-2.938446	door	-5.358021
-4.084574	ask	-2.850792
-1.72664	introduce	-5.201389
-4.084574	leave	-4.211918
-2.987664	may	-5.308803
-2.987664	will	-5.308803

\2-grams:
-0.7846706	<s> find	-5.158107
-4.774795	<s> locate	-1.577662
-4.774795	<s> look	-2.38025
-3.742194	<s> tell	-2.652781
-6.241486	<s> the	-0.3947721
-3.232407	<s> bring	-2.460146
-1.530071	<s> take	-4.345282
-3.402052	<s> give	-2.276541
-6.157868	<s> clean	-0.7744803
-6.458899	<s> tidy	-0.7744789
-6.458899	<s> neaten	-0.7744789
-6.458899	<s> order	-0.7744789
-6.379717	<s> dump	-0.8413203
-1.685963	<s> get	-3.472003
-1.685963	<s> grasp	-3.472003
-1.685963	<s> pick	-3.53186
-4.447057	<s> put	-2.707247
-4.447057	<s> place	-2.707247
-3.988655	<s> deliver	-1.710883
-1.086209	<s> go	-2.888686
-1.086209	<s> navigate	-2.888686
-4.109475	<s> answer	-3.044375
-4.808445	<s> say	-1.655706
-7.158632	<s> a	-0.2983917
-6.857704	<s> what	-0.4735999
-7.158747	<s> something	-0.2983917
-6.659934	<s> your	-0.5980965
-4.197729	<s> follow	-1.786738
-1.28715	<s> meet	-4.041397
-2.060225	<s> guide	-3.88765
-2.060225	<s> escort	-3.88765
-2.060225	<s> lead	-3.88765
-2.060225	<s> accompany	-3.88765
-5.361287	<s> serve	-1.504937
-5.361287	<s> arrange	-1.504937
-5.361287	<s> distribute	-1.504937
-5.361287	<s> provide	-1.504937
-0.784715	<s> contact	-1.361089
-0.784715	<s> face	-1.361089
-0.784715	<s> greet	-1.361089
-2.12774	find me	-4.424211
-0.7626105	find the	-4.255658
-5.002802	find three	-0.7345058
-2.12774	find my	-4.424211
-2.12773	find it	-4.424211
-2.12774	find their	-4.424211
-1.183194	find alex	-5.368745
-1.183194	find charlie	-5.368745
-1.484224	find elizabeth	-5.067717
-1.183194	find francis	-5.368745
-1.484224	find jennifer	-5.067717
-1.484224	find linda	-5.067717
-1.484224	find mary	-5.067717
-1.484224	find patricia	-5.067717
-1.183194	find robin	-5.368745
-1.183194	find skyler	-5.368745
-1.484224	find james	-5.067717
-1.484224	find john	-5.067717
-1.484224	find michael	-5.067717
-1.484224	find robert	-5.067717
-1.484224	find william	-5.067717
-2.12774	find your	-4.424211
-2.12774	find i	-4.424211
-2.127738	find you	-4.424211
-2.12774	find he	-4.424211
-2.12774	find she	-4.424211
-2.12774	find we	-4.424211
-2.12774	find they	-4.424211
-2.12774	find him	-4.424211
-2.12774	find her	-4.424211
-2.12774	find its	-4.424211
-2.12774	find us	-4.424211
-2.12774	find them	-4.424211
-2.12774	find mine	-4.424211
-2.12774	find yours	-4.424211
-2.12774	find his	-4.424211
-2.12774	find hers	-4.424211
-2.12774	find ours	-4.424211
-2.12774	find theirs	-4.424211
-2.12774	find our	-4.424211
-2.607786e-05	locate the	-4.255658
-4.240216	locate three	-0.7345058
-7.032061e-07	look for	-4.891184
-0.03998853	tell me	-2.770929
-1.585066	tell the	-1.533993
-2.06726	tell a	-1.364206
-1.766231	tell what	-1.655746
-2.067261	tell something	-1.364206
-1.589991	tell your	-1.828627
-5.878205e-05	for the	-4.219789
-4.240296	for three	-0.7345058
-4.438125	for to	-1.364206
-4.444416	for an	-1.364206
-1.66822	me </s>
-1.963727	me the	-2.348482
-2.98023	me which	-2.91045
-3.076195	me how	-2.814617
-2.98023	me whats	-2.91045
-1.465935	me at	-1.71205
-0.2509307	me to	-1.695409
-1.545117	me and	-3.49974
-0.9792847	me taxi	-2.694983
-0.9792847	me cab	-2.694983
-0.9792847	me uber	-2.694983
-1.581345	me back	-4.308823
-3.420479	the </s>
-4.500632	the three	-2.134955
-5.98635	the cleaning	-1.440247
-5.98635	the containers	-1.440247
-5.98635	the cutlery	-1.440247
-5.986348	the drinks	-1.440247
-5.98635	the food	-1.440247
-5.98635	the fruits	-1.440247
-5.986348	the snacks	-1.440247
-5.98635	the tableware	-1.440247
-2.187179	the cloth	-5.327178
-2.386962	the scrubby	-2.716471
-2.386962	the sponge	-2.716471
-2.386962	the cascade	-3.975832
-2.187179	the tray	-5.327178
-2.386962	the basket	-2.716471
-2.386962	the bag	-2.719773
-2.386962	the fork	-2.716471
-2.386962	the knife	-2.716471
-2.386962	the spoon	-2.716471
-2.386962	the chocolate	-3.975832
-2.386962	the coke	-2.716471
-2.386962	the grape	-3.9756
-2.085932	the orange	-5.00028
-2.386962	the sprite	-2.716471
-2.386962	the cereal	-2.716471
-2.386962	the noodles	-2.716471
-2.386962	the sausages	-2.716471
-2.386871	the apple	-5.301487
-2.386962	the paprika	-2.716471
-2.386962	the pringles	-2.716471
-2.386962	the crackers	-2.716471
-2.386962	the potato	-3.975832
-2.386962	the dish	-2.716471
-2.187179	the bowl	-5.327178
-2.386962	the cup	-2.716471
-4.768723	the biggest	-1.69635
-4.768723	the largest	-1.696387
-4.768723	the smallest	-1.69635
-4.768723	the heaviest	-1.69635
-4.768723	the lightest	-1.69635
-4.768723	the thinnest	-1.69635
-3.673965	the object	-3.042546
-2.35352	the corridor	-4.343273
-2.35352	the bedroom	-4.343273
-1.085908	the dining	-0.4970467
-2.35352	the living	-3.942467
-2.35352	the kitchen	-4.343273
-1.848718	the side	-3.426855
-1.110017	the desk	-1.21977
-1.072089	the end	-2.650227
-1.03721	the bookcase	-1.470399
-1.848718	the cupboard	-4.041121
-1.672627	the storage	-3.250764
-1.110017	the sink	-1.21977
-1.848718	the counter	-4.041121
-7.113929	the litter	-0.4741858
-7.113929	the garbage	-0.4741858
-7.113929	the trash	-0.4741858
-7.113929	the waste	-0.4741858
-7.113929	the debris	-0.4741858
-7.113929	the junk	-0.4741858
-4.096778	the left	-2.837474
-4.096778	the right	-2.837474
-5.764504	the most	-1.364206
-6.365994	the taxi	-1.040324
-6.365994	the cab	-1.040324
-6.365994	the uber	-1.040324
-3.657312	the person	-2.961359
-1.151576	the entrance	-2.669607
-1.151576	the bed	-3.402769
-1.151576	the exit	-3.402769
-1.151576	the couch	-3.402769
-1.151576	the dishwasher	-3.402769
-5.723112	the name	-1.696265
-5.754918	the time	-1.373383
-5.453889	the day	-1.961432
-2.596243	the people	-4.184141
-5.986354	the gender	-1.440247
-5.986354	the pose	-1.440247
-6.065535	the longest	-1.364206
-6.065535	the origin	-1.364206
-6.065535	the blackberry	-1.364206
-5.764505	the world's	-1.36421
-6.065535	the term	-1.364206
-5.220437	the first	-1.721349
-6.065535	the ai	-1.364206
-6.065535	the robots	-1.364206
-6.065535	the compiler	-1.364206
-6.065535	the c	-1.364206
-6.065535	the python	-1.364206
-6.065535	the inventor	-1.364206
-5.754919	the week	-1.373385
-5.754919	the month	-1.373385
-6.065535	the record	-1.364206
-6.065535	the mounted	-1.364206
-6.065535	the royal	-1.364206
-6.065535	the rcmp	-1.364206
-5.463475	the hotel	-1.951952
-6.065535	the bear	-1.364206
-6.065535	the comic	-1.364206
-6.065535	the world	-1.364206
-2.596243	the men	-4.814311
-2.596243	the women	-4.814311
-5.764505	the usa	-1.655746
-6.065535	the turing	-1.364206
-6.065535	the motion	-1.364206
-6.065535	the second	-1.364206
-6.065535	the winter	-1.364206
-6.065535	the london	-1.364206
-2.353558	the back	-4.770189
-2.353559	the front	-4.227112
-2.353559	the main	-4.227112
-2.353559	the rear	-4.227112
-2.596243	the guests	-4.184671
-2.596243	the elders	-4.184671
-2.596243	the children	-4.184671
-0.02455044	which are	-2.91045
-1.589453	which was	-1.364206
-1.589453	which program	-1.364206
-1.867248	three cleaning	-1.154697
-1.867248	three containers	-1.154697
-1.867248	three cutlery	-1.154697
-1.867247	three drinks	-1.154697
-1.867248	three food	-1.154697
-1.867248	three fruits	-1.154697
-1.867247	three snacks	-1.154697
-1.867248	three tableware	-1.154697
-0.8586487	three biggest	-1.205455
-0.8586487	three largest	-1.205462
-0.8586487	three smallest	-1.205455
-0.8586487	three heaviest	-1.205455
-0.8586487	three lightest	-1.205455
-0.8586487	three thinnest	-1.205455
-1.34437	three famous	-1.364211
-0.0009917215	cleaning stuff	-2.041552
-1.044464	containers in	-1.611053
-1.467329	containers there	-1.205462
-0.3881441	containers on	-2.259102
-0.3395798	containers from	-2.307365
-1.044464	cutlery in	-1.611053
-1.467329	cutlery there	-1.205462
-0.3881441	cutlery on	-2.259102
-0.3395798	cutlery from	-2.307365
-1.197771	drinks in	-1.611053
-1.620662	drinks there	-1.205462
-0.541476	drinks on	-2.259102
-0.5279499	drinks to	-1.972918
-0.4928997	drinks from	-2.307365
-1.044464	food in	-1.611053
-1.467329	food there	-1.205462
-0.3881441	food on	-2.259102
-0.3395798	food from	-2.307365
-1.044464	fruits in	-1.611053
-1.467329	fruits there	-1.205462
-0.3881441	fruits on	-2.259102
-0.3395798	fruits from	-2.307365
-1.197771	snacks in	-1.611053
-1.620662	snacks there	-1.205462
-0.541476	snacks on	-2.259102
-0.5279499	snacks to	-1.972918
-0.4928997	snacks from	-2.307365
-1.044464	tableware in	-1.611053
-1.467329	tableware there	-1.205462
-0.3881441	tableware on	-2.259102
-0.3395798	tableware from	-2.307365
-0.06434638	how many	-1.309724
-1.575427	how long	-1.364206
-1.098306	how big	-1.533989
-1.575427	how small	-1.364206
-0.0004645852	whats the	-2.134955
-0.2904089	are the	-2.91045
-1.856352	are there	-1.364206
-0.4440557	are on	-2.758064
-1.856351	are a	-1.364206
-1.856353	are self-driving	-1.364206
-1.555323	are required	-1.655746
-2.254293	are male	-0.993553
-2.254293	are female	-0.993553
-2.25405	are men	-0.993553
-2.25405	are women	-0.993553
-2.254293	are boys	-0.993553
-2.254293	are girls	-0.993553
-2.254293	are sitting	-0.993553
-2.254293	are standing	-0.993553
-2.254293	are lying	-0.993553
-4.42684	cloth </s>
-3.799183	cloth in	-1.440247
-3.745092	cloth there	-1.492746
-3.392294	cloth on	-1.83769
-2.810596	cloth to	-2.114427
-0.5827668	cloth from	-4.29178
-0.1329552	cloth and	-4.39772
-4.393662	scrubby </s>
-3.900261	scrubby in	-1.154697
-3.846438	scrubby there	-1.205462
-3.493622	scrubby on	-1.542925
-2.766135	scrubby to	-1.960222
-0.3830827	scrubby from	-4.29178
-0.2338217	scrubby and	-4.090819
-4.393662	sponge </s>
-3.900261	sponge in	-1.154697
-3.846438	sponge there	-1.205462
-3.493622	sponge on	-1.542925
-2.766135	sponge to	-1.960222
-0.3830827	sponge from	-4.29178
-0.2338217	sponge and	-4.090819
-4.107888e-06	cascade pod	-2.068431
-4.42684	tray </s>
-3.799183	tray in	-1.440247
-3.745092	tray there	-1.492746
-3.392294	tray on	-1.83769
-2.810596	tray to	-2.114427
-0.5827668	tray from	-4.29178
-0.1329552	tray and	-4.39772
-4.393662	basket </s>
-3.900261	basket in	-1.154697
-3.846438	basket there	-1.205462
-3.493622	basket on	-1.542925
-2.766135	basket to	-1.960222
-0.3830827	basket from	-4.29178
-0.2338217	basket and	-4.090819
-4.393687	bag </s>
-3.900285	bag in	-1.154697
-3.846462	bag there	-1.205462
-3.493646	bag on	-1.542925
-2.752039	bag to	-1.974246
-0.3831071	bag from	-4.29178
-0.2338461	bag and	-4.090819
-4.393662	fork </s>
-3.900261	fork in	-1.154697
-3.846438	fork there	-1.205462
-3.493622	fork on	-1.542925
-2.766135	fork to	-1.960222
-0.3830827	fork from	-4.29178
-0.2338217	fork and	-4.090819
-4.393662	knife </s>
-3.900261	knife in	-1.154697
-3.846438	knife there	-1.205462
-3.493622	knife on	-1.542925
-2.766135	knife to	-1.960222
-0.3830827	knife from	-4.29178
-0.2338217	knife and	-4.090819
-4.393662	spoon </s>
-3.900261	spoon in	-1.154697
-3.846438	spoon there	-1.205462
-3.493622	spoon on	-1.542925
-2.766135	spoon to	-1.960222
-0.3830827	spoon from	-4.29178
-0.2338217	spoon and	-4.090819
-4.107888e-06	chocolate drink	-2.068431
-4.393662	coke </s>
-3.900261	coke in	-1.154697
-3.846438	coke there	-1.205462
-3.493622	coke on	-1.542925
-2.766135	coke to	-1.960222
-0.3830827	coke from	-4.29178
-0.2338217	coke and	-4.090819
-4.105693e-06	grape juice	-1.764197
-4.687421	orange </s>
-0.3010462	orange juice	-1.764197
-4.201202	orange in	-1.154697
-4.147455	orange there	-1.205462
-3.794634	orange on	-1.542925
-3.066959	orange to	-1.960222
-0.6841001	orange from	-4.29178
-0.5348386	orange and	-4.090819
-4.393662	sprite </s>
-3.900261	sprite in	-1.154697
-3.846438	sprite there	-1.205462
-3.493622	sprite on	-1.542925
-2.766135	sprite to	-1.960222
-0.3830827	sprite from	-4.29178
-0.2338217	sprite and	-4.090819
-4.393662	cereal </s>
-3.900261	cereal in	-1.154697
-3.846438	cereal there	-1.205462
-3.493622	cereal on	-1.542925
-2.766135	cereal to	-1.960222
-0.3830827	cereal from	-4.29178
-0.2338217	cereal and	-4.090819
-4.393662	noodles </s>
-3.900261	noodles in	-1.154697
-3.846438	noodles there	-1.205462
-3.493622	noodles on	-1.542925
-2.766135	noodles to	-1.960222
-0.3830827	noodles from	-4.29178
-0.2338217	noodles and	-4.090819
-4.393662	sausages </s>
-3.900261	sausages in	-1.154697
-3.846438	sausages there	-1.205462
-3.493622	sausages on	-1.542925
-2.766135	sausages to	-1.960222
-0.3830827	sausages from	-4.29178
-0.2338217	sausages and	-4.090819
-4.386499	apple </s>
-3.900279	apple in	-1.154697
-3.846533	apple there	-1.205462
-3.493711	apple on	-1.542925
-2.766036	apple to	-1.960222
-0.3831774	apple from	-4.29178
-0.233916	apple and	-4.090819
-3.678447	apple i	-1.364206
-4.393662	paprika </s>
-3.900261	paprika in	-1.154697
-3.846438	paprika there	-1.205462
-3.493622	paprika on	-1.542925
-2.766135	paprika to	-1.960222
-0.3830827	paprika from	-4.29178
-0.2338217	paprika and	-4.090819
-4.393662	pringles </s>
-3.900261	pringles in	-1.154697
-3.846438	pringles there	-1.205462
-3.493622	pringles on	-1.542925
-2.766135	pringles to	-1.960222
-0.3830827	pringles from	-4.29178
-0.2338217	pringles and	-4.090819
-4.393662	crackers </s>
-3.900261	crackers in	-1.154697
-3.846438	crackers there	-1.205462
-3.493622	crackers on	-1.542925
-2.766135	crackers to	-1.960222
-0.3830827	crackers from	-4.29178
-0.2338217	crackers and	-4.090819
-4.107888e-06	potato chips	-2.068431
-4.393662	dish </s>
-3.900261	dish in	-1.154697
-3.846438	dish there	-1.205462
-3.493622	dish on	-1.542925
-2.766135	dish to	-1.960222
-0.3830827	dish from	-4.29178
-0.2338217	dish and	-4.090819
-4.42684	bowl </s>
-3.799183	bowl in	-1.440247
-3.745092	bowl there	-1.492746
-3.392294	bowl on	-1.83769
-2.810596	bowl to	-2.114427
-0.5827668	bowl from	-4.29178
-0.1329552	bowl and	-4.39772
-4.393662	cup </s>
-3.900261	cup in	-1.154697
-3.846438	cup there	-1.205462
-3.493622	cup on	-1.542925
-2.766135	cup to	-1.960222
-0.3830827	cup from	-4.29178
-0.2338217	cup and	-4.090819
-1.044464	stuff in	-1.611053
-1.467329	stuff there	-1.205462
-0.3881441	stuff on	-2.259102
-0.3395798	stuff from	-2.307365
-1.700394	many cleaning	-1.205462
-1.700394	many containers	-1.205462
-1.700394	many cutlery	-1.205462
-1.700393	many drinks	-1.205462
-1.700394	many food	-1.205462
-1.700394	many fruits	-1.205462
-1.700393	many snacks	-1.205462
-1.700394	many tableware	-1.205462
-1.398915	many cloth	-1.492746
-1.699826	many scrubby	-1.205462
-1.699826	many sponge	-1.205462
-1.699826	many cascade	-1.205462
-1.398915	many tray	-1.492746
-1.699826	many basket	-1.205462
-1.699826	many bag	-1.205462
-1.699826	many fork	-1.205462
-1.699826	many knife	-1.205462
-1.699826	many spoon	-1.205462
-1.699826	many chocolate	-1.205462
-1.699826	many coke	-1.205462
-1.699826	many grape	-1.205462
-1.398796	many orange	-1.205461
-1.699826	many sprite	-1.205462
-1.699826	many cereal	-1.205462
-1.699826	many noodles	-1.205462
-1.699826	many sausages	-1.205462
-1.699826	many apple	-1.205462
-1.699826	many paprika	-1.205462
-1.699826	many pringles	-1.205462
-1.699826	many crackers	-1.205462
-1.699826	many potato	-1.205462
-1.699826	many dish	-1.205462
-1.398915	many bowl	-1.492746
-1.699826	many cup	-1.205462
-1.532904	many time	-1.364206
-0.9765357	many people	-1.906733
-1.231875	many tons	-1.655746
-4.393662	pod </s>
-3.900261	pod in	-1.154697
-3.846438	pod there	-1.205462
-3.493622	pod on	-1.542925
-2.766135	pod to	-1.960222
-0.3830827	pod from	-4.29178
-0.2338217	pod and	-4.090819
-4.393662	drink </s>
-3.900261	drink in	-1.154697
-3.846438	drink there	-1.205462
-3.493622	drink on	-1.542925
-2.766135	drink to	-1.960222
-0.3830827	drink from	-4.29178
-0.2338217	drink and	-4.090819
-4.420053	juice </s>
-3.900514	juice in	-1.440247
-3.846424	juice there	-1.492746
-3.493625	juice on	-1.83769
-2.766799	juice to	-2.258863
-0.3830681	juice from	-4.29178
-0.233809	juice and	-4.391587
-4.393662	chips </s>
-3.900261	chips in	-1.154697
-3.846438	chips there	-1.205462
-3.493622	chips on	-1.542925
-2.766135	chips to	-1.960222
-0.3830827	chips from	-4.29178
-0.2338217	chips and	-4.090819
-0.9617459	biggest cleaning	-1.811276
-0.9617459	biggest containers	-1.516915
-0.9617459	biggest cutlery	-1.516915
-0.9617458	biggest drinks	-1.516906
-0.9617459	biggest food	-1.516915
-0.9617459	biggest fruits	-1.516915
-0.9617458	biggest snacks	-1.516906
-0.9617459	biggest tableware	-1.516915
-1.078679	biggest object	-1.404029
-1.588741	biggest objects	-1.205462
-0.9786216	largest cleaning	-1.811276
-0.9786216	largest containers	-1.516915
-0.9786216	largest cutlery	-1.516915
-0.9786216	largest drinks	-1.516906
-0.9786216	largest food	-1.516915
-0.9786216	largest fruits	-1.516915
-0.9786216	largest snacks	-1.516906
-0.9786216	largest tableware	-1.516915
-1.095554	largest object	-1.404029
-1.605617	largest objects	-1.205462
-1.438126	largest coin	-1.364206
-0.9617459	smallest cleaning	-1.811276
-0.9617459	smallest containers	-1.516915
-0.9617459	smallest cutlery	-1.516915
-0.9617458	smallest drinks	-1.516906
-0.9617459	smallest food	-1.516915
-0.9617459	smallest fruits	-1.516915
-0.9617458	smallest snacks	-1.516906
-0.9617459	smallest tableware	-1.516915
-1.078679	smallest object	-1.404029
-1.588741	smallest objects	-1.205462
-0.9617459	heaviest cleaning	-1.811276
-0.9617459	heaviest containers	-1.516915
-0.9617459	heaviest cutlery	-1.516915
-0.9617458	heaviest drinks	-1.516906
-0.9617459	heaviest food	-1.516915
-0.9617459	heaviest fruits	-1.516915
-0.9617458	heaviest snacks	-1.516906
-0.9617459	heaviest tableware	-1.516915
-1.078679	heaviest object	-1.404029
-1.588741	heaviest objects	-1.205462
-0.9617459	lightest cleaning	-1.811276
-0.9617459	lightest containers	-1.516915
-0.9617459	lightest cutlery	-1.516915
-0.9617458	lightest drinks	-1.516906
-0.9617459	lightest food	-1.516915
-0.9617459	lightest fruits	-1.516915
-0.9617458	lightest snacks	-1.516906
-0.9617459	lightest tableware	-1.516915
-1.078679	lightest object	-1.404029
-1.588741	lightest objects	-1.205462
-0.9617459	thinnest cleaning	-1.811276
-0.9617459	thinnest containers	-1.516915
-0.9617459	thinnest cutlery	-1.516915
-0.9617458	thinnest drinks	-1.516906
-0.9617459	thinnest food	-1.516915
-0.9617459	thinnest fruits	-1.516915
-0.9617458	thinnest snacks	-1.516906
-0.9617459	thinnest tableware	-1.516915
-1.078679	thinnest object	-1.404029
-1.588741	thinnest objects	-1.205462
-0.0001510868	in the	-4.892303
-4.320618	in what	-1.364206
-4.019588	in canada	-1.655746
-4.320618	in pass	-1.364206
-4.320618	in ontario	-1.364206
-4.320618	in summer	-1.364206
-4.320618	in one	-1.364206
-0.76519	object on	-2.760404
-0.5051813	object at	-1.71205
-0.8063336	object above	-2.95891
-0.8063336	object behind	-2.95891
-0.8063336	object under	-2.95891
-1.334549	object from	-2.431768
-0.01794975	there are	-2.758064
-1.43015	there in	-1.364206
-0.003572506	corridor </s>
-3.854694	corridor are	-0.4425627
-2.095259	corridor to	-2.96214
-0.003572506	bedroom </s>
-3.854694	bedroom are	-0.4425627
-2.095259	bedroom to	-2.96214
-1.267612	dining room	-4.037238
-0.02410914	dining table	-0.8862192
-3.80411e-06	living room	-4.037238
-0.003572506	kitchen </s>
-3.854694	kitchen are	-0.4425627
-2.095259	kitchen to	-2.96214
-0.005233361	on the	-3.898317
-1.943866	on top	-2.95891
-3.557285	on mars	-1.364206
-3.557285	on humanity	-1.364206
-0.004781245	objects on	-1.960456
-0.003567208	room </s>
-3.854688	room are	-0.6571571
-2.09531	room to	-3.262934
-1.160486e-06	side table	-5.182537
-0.4273992	desk </s>
-1.741801	desk find	-4.558743
-1.741803	desk locate	-4.558743
-1.741803	desk look	-3.209298
-3.311744	desk to	-2.988912
-0.3090437	desk and	-6.476953
-1.514611	desk you	-4.316584
-1.593793	desk follow	-3.808971
-1.611521	desk meet	-4.041397
-1.940936e-07	end table	-1.114288
-0.4945716	bookcase </s>
-1.337488	bookcase find	-5.035856
-1.337488	bookcase locate	-4.778474
-1.337488	bookcase look	-3.209298
-3.38455	bookcase to	-2.988912
-0.3248024	bookcase and	-4.269823
-1.587417	bookcase you	-4.316584
-1.666599	bookcase follow	-3.808971
-1.684327	bookcase meet	-4.041397
-1.572838	cupboard </s>
-0.7020747	cupboard find	-4.859766
-0.7020751	cupboard locate	-4.778474
-0.7020751	cupboard look	-3.209298
-0.4230561	cupboard and	-4.433228
-7.736577e-07	storage table	-5.631298
-0.4273992	sink </s>
-1.741801	sink find	-4.558743
-1.741803	sink locate	-4.558743
-1.741803	sink look	-3.209298
-3.311744	sink to	-2.988912
-0.3090437	sink and	-6.476953
-1.514611	sink you	-4.316584
-1.593793	sink follow	-3.808971
-1.611521	sink meet	-4.041397
-1.572838	counter </s>
-0.7020747	counter find	-4.859766
-0.7020751	counter locate	-4.778474
-0.7020751	counter look	-3.209298
-0.4230561	counter and	-4.433228
-0.5240663	table </s>
-1.244834	table find	-5.461822
-1.244834	table locate	-4.778474
-1.244834	table look	-3.209298
-3.416996	table to	-3.289719
-0.3311476	table and	-6.476953
-1.619702	table you	-4.623161
-1.698883	table follow	-3.522022
-1.716612	table meet	-1.607874
-2.374346	bring me	-3.621294
-2.448395	bring the	-2.134889
-4.633023	bring cloth	-1.380517
-4.633199	bring scrubby	-1.380517
-4.633199	bring sponge	-1.380517
-4.633199	bring cascade	-1.380517
-4.633023	bring tray	-1.380517
-4.633199	bring basket	-1.380517
-4.633199	bring bag	-1.380517
-4.633199	bring fork	-1.380517
-4.633199	bring knife	-1.380517
-4.633199	bring spoon	-1.380517
-4.633199	bring chocolate	-1.380517
-4.633199	bring coke	-1.380517
-4.633199	bring grape	-1.380517
-4.33217	bring orange	-1.380516
-4.633199	bring sprite	-1.380517
-4.633199	bring cereal	-1.380517
-4.633199	bring noodles	-1.380517
-4.633199	bring sausages	-1.380517
-4.633199	bring apple	-1.380517
-4.633199	bring paprika	-1.380517
-4.633199	bring pringles	-1.380517
-4.633199	bring crackers	-1.380517
-4.633199	bring potato	-1.380517
-4.633199	bring dish	-1.380517
-4.633023	bring bowl	-1.380517
-4.633199	bring cup	-1.380517
-4.817341	bring my	-0.6011781
-0.003686647	bring it	-5.991862
-1.479538	take me	-4.287676
-0.7760578	take the	-4.059178
-5.473861	take out	-0.8413203
-5.162582	take to	-0.993553
-1.479427	take my	-3.868197
-1.479533	take it	-4.278364
-1.479538	take their	-4.287827
-2.154388	take alex	-3.791422
-2.154388	take charlie	-3.791422
-2.455417	take elizabeth	-3.490864
-2.154388	take francis	-3.791422
-2.455417	take jennifer	-3.490864
-2.455417	take linda	-3.490864
-2.455417	take mary	-3.490864
-2.455417	take patricia	-3.490864
-2.154388	take robin	-3.791422
-2.154388	take skyler	-3.791422
-2.455417	take james	-3.490864
-2.455417	take john	-3.490864
-2.455417	take michael	-3.490864
-2.455417	take robert	-3.490864
-2.455417	take william	-3.490864
-1.479538	take your	-4.287785
-1.479538	take i	-4.287703
-1.479537	take you	-4.28915
-1.479538	take he	-4.287811
-1.479538	take she	-4.287811
-1.479538	take we	-4.287811
-1.479538	take they	-4.287811
-1.479538	take him	-4.287811
-1.479538	take her	-4.287811
-1.479538	take its	-4.287811
-1.479538	take us	-4.287811
-1.479538	take them	-4.287811
-1.479538	take mine	-4.287811
-1.479538	take yours	-4.287811
-1.479538	take his	-4.287811
-1.479538	take hers	-4.287811
-1.479538	take ours	-4.287811
-1.479538	take theirs	-4.287811
-1.479538	take our	-4.287811
-2.373161	give me	-3.621294
-3.101201	give the	-1.490224
-4.503222	give drinks	-1.504936
-4.503222	give snacks	-1.504936
-4.631823	give cloth	-1.380517
-4.632005	give scrubby	-1.380517
-4.632005	give sponge	-1.380517
-4.632005	give cascade	-1.380517
-4.631823	give tray	-1.380517
-4.632005	give basket	-1.380517
-4.632005	give bag	-1.380517
-4.632005	give fork	-1.380517
-4.632005	give knife	-1.380517
-4.632005	give spoon	-1.380517
-4.632005	give chocolate	-1.380517
-4.632005	give coke	-1.380517
-4.632005	give grape	-1.380517
-4.330975	give orange	-1.380516
-4.632005	give sprite	-1.380517
-4.632005	give cereal	-1.380517
-4.632005	give noodles	-1.380517
-4.632005	give sausages	-1.380517
-4.632005	give apple	-1.380517
-4.632005	give paprika	-1.380517
-4.632005	give pringles	-1.380517
-4.632005	give crackers	-1.380517
-4.632005	give potato	-1.380517
-4.632005	give dish	-1.380517
-4.631823	give bowl	-1.380517
-4.632005	give cup	-1.380517
-0.002502573	give it	-5.991862
-0.3809494	clean out	-0.7744789
-0.3806893	clean up	-0.7744789
-0.07978938	tidy up	-0.7744789
-0.06865625	neaten the	-0.2988303
-0.06865625	order the	-0.2988303
-0.05817345	dump the	-0.2988303
-0.03300194	out the	-0.2988303
-1.287576e-06	up the	-3.97549
-0.1620646	litter </s>
-0.1620646	garbage </s>
-0.1620646	trash </s>
-0.1620646	waste </s>
-0.1620646	debris </s>
-0.1620646	junk </s>
-0.4544038	left in	-3.048503
-1.975454	left most	-1.539784
-0.5440899	left of	-2.95891
-0.4544075	left arm	-3.048503
-0.4544038	right in	-3.048503
-1.975454	right most	-1.539784
-0.5440899	right of	-2.95891
-0.4544075	right arm	-3.048503
-2.237868e-08	at the	-8.333722
-0.0004155095	above the	-1.555711
-0.0004155095	behind the	-1.555711
-0.0004155095	under the	-1.555711
-1.789939	to me	-4.813504
-0.6374444	to the	-5.321776
-1.815496	to my	-4.938754
-1.815495	to it	-4.930027
-1.815496	to their	-4.932752
-1.411967	to alex	-5.791511
-1.411967	to charlie	-5.791511
-1.712998	to elizabeth	-5.490481
-1.411967	to francis	-5.791511
-1.712998	to jennifer	-5.490481
-1.712998	to linda	-5.490481
-1.712998	to mary	-5.490481
-1.712998	to patricia	-5.490481
-1.411967	to robin	-5.791511
-1.411967	to skyler	-5.791511
-1.712998	to james	-5.490481
-1.712998	to john	-5.490481
-1.712998	to michael	-5.490481
-1.712998	to robert	-5.490481
-1.712998	to william	-5.490481
-1.815496	to your	-4.938782
-1.815496	to i	-4.938757
-1.611022	to all	-4.783272
-1.815495	to you	-4.928439
-5.858465	to be	-1.364206
-5.858465	to open	-1.364206
-5.557435	to build	-1.655746
-5.858465	to humanity	-1.364206
-1.815496	to he	-4.938745
-1.815496	to she	-4.938745
-1.815496	to we	-4.938745
-1.815496	to they	-4.938745
-1.815496	to him	-4.938745
-1.815496	to her	-4.938745
-1.815496	to its	-4.938745
-1.815496	to us	-4.938745
-1.815496	to them	-4.938745
-1.815496	to mine	-4.938745
-1.815496	to yours	-4.938745
-1.815496	to his	-4.938745
-1.815496	to hers	-4.938745
-1.815496	to ours	-4.938745
-1.815496	to theirs	-4.938745
-1.815496	to our	-4.938745
-2.389173	to everyone	-4.184671
-2.991587	to leave	-4.211918
-0.2309953	most object	-1.834503
-0.7140811	most handsome	-1.364206
-0.7140811	most gold	-1.364206
-0.0004776466	top of	-2.95891
-0.006765944	of the	-1.974409
-2.136736	of ice	-1.364206
-2.136736	of snow	-1.364206
-8.502925e-06	from the	-4.7786
-4.73149	from canada	-1.364206
-1.287619e-06	get the	-4.055705
-1.287619e-06	grasp the	-4.055705
-1.477898e-06	pick up	-3.471988
-1.877172	put the	-1.313074
-0.005820668	put it	-4.577979
-1.877172	place the	-1.313074
-0.005820668	place it	-4.577979
-3.099429	deliver the	-1.490224
-4.501378	deliver drinks	-1.504936
-4.501378	deliver snacks	-1.504936
-4.629996	deliver cloth	-1.380517
-4.630172	deliver scrubby	-1.380517
-4.630172	deliver sponge	-1.380517
-4.630172	deliver cascade	-1.380517
-4.629996	deliver tray	-1.380517
-4.630172	deliver basket	-1.380517
-4.630172	deliver bag	-1.380517
-4.630172	deliver fork	-1.380517
-4.630172	deliver knife	-1.380517
-4.630172	deliver spoon	-1.380517
-4.630172	deliver chocolate	-1.380517
-4.630172	deliver coke	-1.380517
-4.630172	deliver grape	-1.380517
-4.329142	deliver orange	-1.380516
-4.630172	deliver sprite	-1.380517
-4.630172	deliver cereal	-1.380517
-4.630172	deliver noodles	-1.380517
-4.630172	deliver sausages	-1.380517
-4.630172	deliver apple	-1.380517
-4.630172	deliver paprika	-1.380517
-4.630172	deliver pringles	-1.380517
-4.630172	deliver crackers	-1.380517
-4.630172	deliver potato	-1.380517
-4.630172	deliver dish	-1.380517
-4.629996	deliver bowl	-1.380517
-4.630172	deliver cup	-1.380517
-0.0006591162	deliver it	-5.991862
-3.361019e-07	go to	-6.074759
-3.361019e-07	navigate to	-6.074759
-2.606137	my </s>
-5.098169	my bag	-0.8440901
-1.451435	my at	-1.71205
-0.2364315	my to	-1.695409
-5.098672	my baggage	-0.8440901
-5.098672	my valise	-0.8440901
-5.098672	my suitcase	-0.8440901
-5.098672	my trolley	-0.8440901
-1.530616	my and	-3.49974
-0.9647856	my taxi	-2.694983
-0.9647856	my cab	-2.694983
-0.9647856	my uber	-2.694983
-1.566845	my back	-4.308823
-0.06129521	baggage to	-0.8440901
-0.06129521	valise to	-0.8440901
-0.06129521	suitcase to	-0.8440901
-0.06129521	trolley to	-0.8440901
-1.141471	and bring	-5.991862
-1.003542	and take	-4.766281
-1.141471	and give	-5.991862
-2.555365	and put	-4.577979
-2.555365	and place	-4.577979
-1.141471	and deliver	-5.991862
-2.82453	and go	-2.888686
-2.82453	and navigate	-2.888686
-5.78832	and fifteen	-1.364206
-2.34741	and follow	-3.808971
-1.003542	and guide	-4.764964
-1.003542	and escort	-4.764964
-1.003542	and lead	-4.764964
-1.003542	and accompany	-4.764964
-2.921442	and ask	-2.826011
-0.5635069	and introduce	-2.539249
-2.15163e-07	taxi </s>
-2.15163e-07	cab </s>
-2.15163e-07	uber </s>
-2.06777	person in	-1.40124
-2.026612	person at	-1.71205
-0.7071957	person waving	-3.048503
-0.4061657	person raising	-3.349339
-0.4061657	person pointing	-3.349339
-0.0003876659	waving in	-3.048503
-0.0001935914	raising their	-3.048517
-0.0001786405	pointing to	-3.349339
-3.307009	it </s>
-1.697456	it on	-4.879003
-2.152246	it at	-1.71205
-0.04753172	it to	-1.45533
-2.231427	it and	-3.49974
-1.665591	it taxi	-2.694983
-1.665591	it cab	-2.694983
-1.665591	it uber	-2.694983
-2.267651	it back	-4.308823
-2.607458	their </s>
-2.828804	their left	-3.048503
-2.828804	their right	-3.048503
-1.45271	their at	-1.71205
-0.2377032	their to	-1.695409
-1.531892	their and	-3.49974
-0.9660572	their taxi	-2.694983
-0.9660572	their cab	-2.694983
-0.9660572	their uber	-2.694983
-1.568117	their back	-4.308823
-0.0001938764	arm in	-3.349339
-5.911659	alex </s>
-0.02869521	alex at	-1.71205
-1.454164	alex to	-4.785929
-3.25161	alex from	-2.988912
-1.549268	alex and	-3.909561
-5.911659	charlie </s>
-0.02869521	charlie at	-1.71205
-1.454164	charlie to	-4.785929
-3.25161	charlie from	-2.988912
-1.549268	charlie and	-3.909561
-5.843897	elizabeth </s>
-0.02869635	elizabeth at	-1.71205
-1.454162	elizabeth to	-4.484906
-3.251598	elizabeth from	-2.688327
-1.549266	elizabeth and	-3.610242
-5.911659	francis </s>
-0.02869521	francis at	-1.71205
-1.454164	francis to	-4.785929
-3.25161	francis from	-2.988912
-1.549268	francis and	-3.909561
-5.843897	jennifer </s>
-0.02869635	jennifer at	-1.71205
-1.454162	jennifer to	-4.484906
-3.251598	jennifer from	-2.688327
-1.549266	jennifer and	-3.610242
-5.843897	linda </s>
-0.02869635	linda at	-1.71205
-1.454162	linda to	-4.484906
-3.251598	linda from	-2.688327
-1.549266	linda and	-3.610242
-5.843897	mary </s>
-0.02869635	mary at	-1.71205
-1.454162	mary to	-4.484906
-3.251598	mary from	-2.688327
-1.549266	mary and	-3.610242
-5.843897	patricia </s>
-0.02869635	patricia at	-1.71205
-1.454162	patricia to	-4.484906
-3.251598	patricia from	-2.688327
-1.549266	patricia and	-3.610242
-5.911659	robin </s>
-0.02869521	robin at	-1.71205
-1.454164	robin to	-4.785929
-3.25161	robin from	-2.988912
-1.549268	robin and	-3.909561
-5.911659	skyler </s>
-0.02869521	skyler at	-1.71205
-1.454164	skyler to	-4.785929
-3.25161	skyler from	-2.988912
-1.549268	skyler and	-3.909561
-5.843897	james </s>
-0.02869635	james at	-1.71205
-1.454162	james to	-4.484906
-3.251598	james from	-2.688327
-1.549266	james and	-3.610242
-5.843897	john </s>
-0.02869635	john at	-1.71205
-1.454162	john to	-4.484906
-3.251598	john from	-2.688327
-1.549266	john and	-3.610242
-5.843897	michael </s>
-0.02869635	michael at	-1.71205
-1.454162	michael to	-4.484906
-3.251598	michael from	-2.688327
-1.549266	michael and	-3.610242
-5.843897	robert </s>
-0.02869635	robert at	-1.71205
-1.454162	robert to	-4.484906
-3.251598	robert from	-2.688327
-1.549266	robert and	-3.610242
-5.843897	william </s>
-0.02869635	william at	-1.71205
-1.454162	william to	-4.484906
-3.251598	william from	-2.688327
-1.549266	william and	-3.610242
-0.4400745	entrance </s>
-3.321682	entrance to	-2.988912
-0.2535304	entrance and	-5.070377
-1.524442	entrance you	-4.316584
-1.603623	entrance follow	-3.808971
-1.621352	entrance meet	-4.041397
-0.3886842	bed </s>
-3.270292	bed to	-2.988912
-0.2990885	bed and	-5.087778
-1.473051	bed you	-4.316584
-1.552233	bed follow	-3.808971
-1.569962	bed meet	-4.041397
-0.3886842	exit </s>
-3.270292	exit to	-2.988912
-0.2990885	exit and	-5.087778
-1.473051	exit you	-4.316584
-1.552233	exit follow	-3.808971
-1.569962	exit meet	-4.041397
-0.3886842	couch </s>
-3.270292	couch to	-2.988912
-0.2990885	couch and	-5.087778
-1.473051	couch you	-4.316584
-1.552233	couch follow	-3.808971
-1.569962	couch meet	-4.041397
-0.3886842	dishwasher </s>
-3.270292	dishwasher to	-2.988912
-0.2990885	dishwasher and	-5.087778
-1.473051	dishwasher you	-4.316584
-1.552233	dishwasher follow	-3.808971
-1.569962	dishwasher meet	-4.041397
-0.0003922853	answer a	-1.873719
-0.5283488	say the	-1.533993
-1.009702	say a	-1.364206
-0.7086723	say what	-1.655746
-1.009702	say something	-1.364206
-0.5324571	say your	-1.828627
-1.484574	a which	-1.364206
-0.8825149	a how	-1.655666
-1.785602	a are	-1.364206
-1.784596	a in	-1.364206
-1.785605	a who's	-1.364206
-1.308484	a what's	-1.828627
-1.308484	a where	-1.533989
-0.7064238	a what	-1.655745
-0.9405071	a who	-1.59924
-1.308484	a why	-1.533989
-1.308484	a when	-1.828627
-1.785161	a can	-1.364206
-1.308484	a name	-1.533993
-1.785605	a do	-1.364206
-1.785604	a is	-1.364206
-1.474989	a joke	-1.373385
-1.484575	a nanobot	-1.364212
-1.785605	a mechanical	-1.364206
-1.785605	a chatbot	-1.364206
-1.484575	a hard	-1.655746
-1.785605	a threat	-1.364206
-1.785605	a robot	-1.364206
-0.01664848	who's the	-1.364206
-0.005642537	what's the	-1.364206
-0.1889802	where is	-1.364206
-0.4900102	where was	-1.364206
-0.5417179	what is	-1.750731
-0.6290419	what day	-1.961432
-0.939658	what was	-1.655746
-0.9396581	what year	-1.655746
-1.240688	what country	-1.364206
-1.240688	what else	-1.364206
-0.9396581	what does	-1.364211
-0.3790476	who is	-1.533993
-0.8561689	who coined	-1.364206
-0.8561689	who invented	-1.364206
-0.5551389	who created	-1.655746
-0.1889802	why is	-1.364206
-0.4900102	why wasn't	-1.364206
-0.006492309	when was	-1.828627
-0.0001007142	can find	-3.946562
-3.963888	can a	-1.364206
-3.963665	can i	-1.364206
-2.088804	name </s>
-0.5723228	name three	-1.655746
-0.5683807	name to	-1.655746
-0.5309297	name of	-1.696265
-0.8731591	name all	-1.364206
-0.3199529	do you	-1.364206
-0.3202228	do jedi	-1.364206
-0.5714879	is the	-1.440246
-0.8775913	is a	-1.364206
-1.354713	is mark	-1.364206
-1.354713	is canada	-1.364206
-1.053683	is canada's	-1.655746
-1.354713	is elon	-1.364206
-1.354713	is considered	-1.364206
-1.044097	is today	-1.373385
-1.044097	is tomorrow	-1.373385
-1.354713	is yonge	-1.364206
-1.354713	is montreal	-1.364206
-1.354713	is worried	-1.364206
-0.009492917	something about	-1.665122
-2.606263	your </s>
-1.451499	your at	-1.71205
-0.2364908	your to	-1.695409
-1.530681	your and	-3.49974
-0.9648448	your taxi	-2.694983
-0.9648448	your cab	-2.694983
-0.9648448	your uber	-2.694983
-3.742956	your teams	-1.665359
-1.566905	your back	-4.308823
-0.1856222	about yourself	-1.373385
-0.4962384	about ai's	-1.364206
-1.978834	time </s>
-0.1110992	time to	-1.951952
-0.7143457	time zones	-1.364206
-0.3058023	day of	-1.961432
-0.3058024	day is	-1.665128
-0.4866141	teams name	-1.373382
-0.4866141	teams country	-1.373383
-0.4866141	teams affiliation	-1.373385
-1.620652	joke </s>
-0.02678775	joke to	-1.655746
-6.636337e-06	people in	-4.814842
-0.0191928	long is	-1.364206
-0.1001796	was the	-1.655746
-0.702877	was canada	-1.655746
-0.009702427	year was	-1.655746
-1.766942	country </s>
-0.1990534	country to	-1.655746
-0.5024531	country holds	-1.364206
-0.01664848	coined the	-1.364206
-0.1889802	big is	-1.364206
-0.4900102	big was	-1.364206
-0.0191928	else is	-1.364206
-2.606193	i </s>
-1.451445	i at	-1.71205
-0.2364383	i to	-1.695409
-1.530627	i and	-3.49974
-0.9647923	i taxi	-2.694983
-0.9647923	i cab	-2.694983
-0.9647923	i uber	-2.694983
-4.53064	i visit	-1.364206
-4.53064	i microcomputer	-1.364206
-1.566852	i back	-4.308823
-0.01917265	small can	-1.364206
-0.01919284	wasn't tron	-1.364206
-0.3202228	does captcha	-1.364206
-0.3202228	does moravec's	-1.364206
-2.636756e-05	all the	-4.812613
-4.247469	all of	-1.364206
-2.864631	you </s>
-1.709914	you at	-1.71205
-0.4949094	you to	-1.695409
-1.789096	you and	-3.49974
-1.223263	you taxi	-2.694983
-1.223263	you cab	-2.694983
-1.223263	you uber	-2.694983
-0.8253242	you can	-5.308803
-4.789112	you think	-1.364206
-1.825323	you back	-4.308823
-0.8253242	you may	-3.683305
-0.8253242	you will	-3.683305
-0.01919284	self-driving cars	-1.364206
-0.01664848	invented the	-1.364206
-0.008428393	created the	-1.364206
-0.01919284	mark zuckerberg	-1.364206
-0.01919284	program do	-1.364206
-1.620652	yourself </s>
-0.02678775	yourself to	-1.655746
-1.620652	affiliation </s>
-0.02678775	affiliation to	-1.655746
-0.01605211	gender of	-1.440247
-0.01605211	pose of	-1.440247
-0.01919284	longest street	-1.364206
-0.01664848	holds the	-1.364206
-0.2501811	canada to	-1.951952
-0.8534276	canada named	-1.364206
-0.5523976	canada invaded	-1.655746
-0.009702288	tons of	-1.364206
-0.009702436	canada's only	-1.655746
-0.01919255	origin of	-1.364206
-0.01919284	tron nominated	-1.364206
-0.01919284	captcha stands	-1.364206
-0.01919284	moravec's paradox	-1.364206
-0.01919284	elon musk	-1.364206
-0.01919284	think robots	-1.364206
-0.01919284	cars safe	-1.364206
-0.01761163	considered to	-1.364206
-1.620652	today </s>
-0.02678775	today to	-1.655746
-1.620652	tomorrow </s>
-0.02678775	tomorrow to	-1.655746
-0.01919228	handsome person	-1.364206
-0.01919269	zones are	-1.364206
-0.009679483	street in	-1.363754
-0.01919284	yonge street	-1.364206
-0.01919284	blackberry smartphone	-1.364206
-0.3202227	world's largest	-1.364206
-0.3202228	world's first	-1.364206
-0.01919284	term beatlemania	-1.364206
-0.01919284	montreal called	-1.364206
-0.01664848	visit the	-1.364206
-0.3170661	nanobot to	-1.364206
-0.3202228	nanobot be	-1.364206
-0.9127924	first time	-1.364206
-0.2138224	first computer	-1.45733
-0.9127924	first hard	-1.364206
-0.9127925	first android	-1.364206
-0.01919284	mechanical knight	-1.364206
-0.01919284	ai knowledge	-1.364206
-0.3202225	robots are	-1.364206
-0.320207	robots on	-1.364206
-0.01761163	chatbot to	-1.364206
-0.01761163	safe to	-1.364206
-0.01761163	compiler to	-1.364206
-0.01919284	c programming	-1.364206
-0.01919284	python programming	-1.364206
-0.01919271	zuckerberg a	-1.364206
-0.01919255	inventor of	-1.364206
-0.01919284	jedi use	-1.364206
-1.620652	week </s>
-0.02678775	week to	-1.655746
-1.620652	month </s>
-0.02678775	month to	-1.655746
-0.01913179	record for	-1.364206
-0.01761163	beatlemania to	-1.364206
-0.01919283	named canada	-1.364206
-0.009702436	mounted police	-1.655746
-0.01919284	royal canadian	-1.364206
-0.01761163	rcmp to	-1.364206
-0.004878311	hotel de	-1.951952
-0.01919269	ice are	-1.364206
-0.01919269	snow are	-1.364206
-0.009702436	only desert	-1.655746
-0.01913179	nominated for	-1.364206
-0.7142079	computer in	-1.364206
-0.4133615	computer with	-1.655746
-0.7143915	computer bug	-1.364206
-0.7143915	computer programmer	-1.364206
-0.01913179	stands for	-1.364206
-0.01919284	paradox state	-1.364206
-0.0191928	musk is	-1.364206
-0.3151489	be the	-1.364206
-0.3170661	be to	-1.364206
-0.01919284	bear cub	-1.364206
-0.01919284	smartphone developed	-1.364206
-0.01761163	coin to	-1.364206
-0.009702435	invaded by	-1.655746
-0.01761163	called to	-1.364206
-0.00891111	desert to	-1.655746
-0.3202228	famous male	-1.364206
-0.3202228	famous female	-1.364206
-0.01919284	comic sans	-1.364206
-0.009702372	with a	-1.655746
-0.006492314	hard disk	-1.828627
-0.01761163	bug to	-1.364206
-0.01761163	android to	-1.364206
-0.01761163	knight to	-1.364206
-0.01761163	state to	-1.364206
-0.01919284	knowledge engineering	-1.364206
-0.009702436	programming language	-1.655746
-0.01761163	use to	-1.364206
-0.01761163	world to	-1.364206
-0.01919284	cub exported	-1.364206
-0.005642537	by the	-1.533993
-0.009702436	police formed	-1.655746
-0.01919284	canadian mounted	-1.364206
-0.004878311	de glace	-1.48443
-0.00891111	required to	-1.655746
-0.5642316	male </s>
-0.1732937	male canadians	-1.364206
-0.5642316	female </s>
-0.1732937	female canadians	-1.364206
-0.01919284	an award	-1.364206
-0.006492314	disk drive	-1.533989
-0.01761163	mars to	-1.364206
-0.01664848	pass the	-1.364206
-0.01919284	engineering bottleneck	-1.364206
-0.01761163	threat to	-1.364206
-0.01761163	robot to	-1.364206
-0.01907461	exported from	-1.364206
-0.01761163	developed to	-1.364206
-0.6163958	glace in	-1.364206
-0.3131339	glace to	-1.655746
-0.6165336	glace located	-1.364206
-0.00891111	canadians to	-1.655746
-0.01919284	sans font	-1.364206
-0.01919284	award by	-1.364206
-0.1873991	drive to	-1.655746
-0.4900102	drive launched	-1.364206
-0.01761163	bottleneck to	-1.364206
-0.01919284	worried about	-1.364206
-0.00891111	language to	-1.655746
-0.01919284	open pdf	-1.364206
-3.860302	men </s>
-7.209991e-05	men in	-4.814311
-3.860302	women </s>
-7.209991e-05	women in	-4.814311
-0.04296462	boys </s>
-0.04296462	girls </s>
-0.04296462	sitting </s>
-0.04296462	standing </s>
-0.04647977	lying down	-0.993553
-0.01761163	ontario to	-1.364206
-0.009671911	usa for	-1.655746
-0.01919284	gold medals	-1.364206
-0.00891111	formed to	-1.655746
-0.008428393	build the	-1.655746
-0.01919284	turing test	-1.364206
-0.00891111	humanity to	-1.655746
-0.01761163	programmer to	-1.364206
-0.01919284	pdf files	-1.364206
-0.04296462	down </s>
-0.01752207	medals at	-1.364206
-0.01761163	located to	-1.364206
-0.01761163	font to	-1.364206
-0.01919284	ai's impact	-1.364206
-0.01761163	launched to	-1.364206
-0.01761163	test to	-1.364206
-0.01761163	microcomputer to	-1.364206
-0.01761163	files to	-1.364206
-0.01761163	summer to	-1.364206
-0.01919284	motion picture	-1.364206
-0.01918493	impact on	-1.364206
-0.01919283	second time	-1.364206
-0.01919284	winter olympics	-1.364206
-0.01919284	london zoo	-1.364206
-0.01919284	picture academy	-1.364206
-0.01761163	olympics to	-1.364206
-0.01914694	zoo in	-1.364206
-0.01761163	academy to	-1.364206
-0.01919284	one thousand	-1.364206
-0.01919284	thousand nine	-1.364206
-0.01919284	nine hundred	-1.364206
-0.01784709	hundred and	-1.364206
-0.01761163	fifteen to	-1.364206
-1.362441	follow me	-4.090088
-1.362441	follow my	-4.089809
-1.362431	follow it	-4.079786
-1.362441	follow their	-4.089605
-3.7994	follow alex	-1.664159
-3.7994	follow charlie	-1.664159
-4.10043	follow elizabeth	-1.372438
-3.7994	follow francis	-1.664159
-4.10043	follow jennifer	-1.372438
-4.10043	follow linda	-1.372438
-4.10043	follow mary	-1.372438
-4.10043	follow patricia	-1.372438
-3.7994	follow robin	-1.664159
-3.7994	follow skyler	-1.664159
-4.10043	follow james	-1.372438
-4.10043	follow john	-1.372438
-4.10043	follow michael	-1.372438
-4.10043	follow robert	-1.372438
-4.10043	follow william	-1.372438
-1.362441	follow your	-4.089902
-1.362441	follow i	-4.08982
-1.362439	follow you	-4.091171
-1.362441	follow he	-4.089779
-1.362441	follow she	-4.089779
-1.362441	follow we	-4.089779
-1.362441	follow they	-4.089779
-1.362441	follow him	-4.089779
-1.362441	follow her	-4.089779
-1.362441	follow its	-4.089779
-1.362441	follow us	-4.089779
-1.362441	follow them	-4.089779
-1.362441	follow mine	-4.089779
-1.362441	follow yours	-4.089779
-1.362441	follow his	-4.089779
-1.362441	follow hers	-4.089779
-1.362441	follow ours	-4.089779
-1.362441	follow theirs	-4.089779
-1.362441	follow our	-4.089779
-1.000005	meet alex	-4.587631
-1.000005	meet charlie	-4.587631
-1.301035	meet elizabeth	-4.381504
-1.000005	meet francis	-4.587631
-1.301035	meet jennifer	-4.381504
-1.301035	meet linda	-4.381504
-1.301035	meet mary	-4.381504
-1.301035	meet patricia	-4.381504
-1.000005	meet robin	-4.587631
-1.000005	meet skyler	-4.587631
-1.301035	meet james	-4.381504
-1.301035	meet john	-4.381504
-1.301035	meet michael	-4.381504
-1.301035	meet robert	-4.381504
-1.301035	meet william	-4.381504
-2.606201	he </s>
-1.451422	he at	-1.71205
-0.236412	he to	-1.695409
-1.530603	he and	-3.49974
-0.964766	he taxi	-2.694983
-0.964766	he cab	-2.694983
-0.964766	he uber	-2.694983
-1.566826	he back	-4.308823
-2.606201	she </s>
-1.451422	she at	-1.71205
-0.236412	she to	-1.695409
-1.530603	she and	-3.49974
-0.964766	she taxi	-2.694983
-0.964766	she cab	-2.694983
-0.964766	she uber	-2.694983
-1.566826	she back	-4.308823
-2.606201	we </s>
-1.451422	we at	-1.71205
-0.236412	we to	-1.695409
-1.530603	we and	-3.49974
-0.964766	we taxi	-2.694983
-0.964766	we cab	-2.694983
-0.964766	we uber	-2.694983
-1.566826	we back	-4.308823
-2.606201	they </s>
-1.451422	they at	-1.71205
-0.236412	they to	-1.695409
-1.530603	they and	-3.49974
-0.964766	they taxi	-2.694983
-0.964766	they cab	-2.694983
-0.964766	they uber	-2.694983
-1.566826	they back	-4.308823
-2.606201	him </s>
-1.451422	him at	-1.71205
-0.236412	him to	-1.695409
-1.530603	him and	-3.49974
-0.964766	him taxi	-2.694983
-0.964766	him cab	-2.694983
-0.964766	him uber	-2.694983
-1.566826	him back	-4.308823
-2.606201	her </s>
-1.451422	her at	-1.71205
-0.236412	her to	-1.695409
-1.530603	her and	-3.49974
-0.964766	her taxi	-2.694983
-0.964766	her cab	-2.694983
-0.964766	her uber	-2.694983
-1.566826	her back	-4.308823
-2.606201	its </s>
-1.451422	its at	-1.71205
-0.236412	its to	-1.695409
-1.530603	its and	-3.49974
-0.964766	its taxi	-2.694983
-0.964766	its cab	-2.694983
-0.964766	its uber	-2.694983
-1.566826	its back	-4.308823
-2.606201	us </s>
-1.451422	us at	-1.71205
-0.236412	us to	-1.695409
-1.530603	us and	-3.49974
-0.964766	us taxi	-2.694983
-0.964766	us cab	-2.694983
-0.964766	us uber	-2.694983
-1.566826	us back	-4.308823
-2.606201	them </s>
-1.451422	them at	-1.71205
-0.236412	them to	-1.695409
-1.530603	them and	-3.49974
-0.964766	them taxi	-2.694983
-0.964766	them cab	-2.694983
-0.964766	them uber	-2.694983
-1.566826	them back	-4.308823
-2.606201	mine </s>
-1.451422	mine at	-1.71205
-0.236412	mine to	-1.695409
-1.530603	mine and	-3.49974
-0.964766	mine taxi	-2.694983
-0.964766	mine cab	-2.694983
-0.964766	mine uber	-2.694983
-1.566826	mine back	-4.308823
-2.606201	yours </s>
-1.451422	yours at	-1.71205
-0.236412	yours to	-1.695409
-1.530603	yours and	-3.49974
-0.964766	yours taxi	-2.694983
-0.964766	yours cab	-2.694983
-0.964766	yours uber	-2.694983
-1.566826	yours back	-4.308823
-2.606201	his </s>
-1.451422	his at	-1.71205
-0.236412	his to	-1.695409
-1.530603	his and	-3.49974
-0.964766	his taxi	-2.694983
-0.964766	his cab	-2.694983
-0.964766	his uber	-2.694983
-1.566826	his back	-4.308823
-2.606201	hers </s>
-1.451422	hers at	-1.71205
-0.236412	hers to	-1.695409
-1.530603	hers and	-3.49974
-0.964766	hers taxi	-2.694983
-0.964766	hers cab	-2.694983
-0.964766	hers uber	-2.694983
-1.566826	hers back	-4.308823
-2.606201	ours </s>
-1.451422	ours at	-1.71205
-0.236412	ours to	-1.695409
-1.530603	ours and	-3.49974
-0.964766	ours taxi	-2.694983
-0.964766	ours cab	-2.694983
-0.964766	ours uber	-2.694983
-1.566826	ours back	-4.308823
-2.606201	theirs </s>
-1.451422	theirs at	-1.71205
-0.236412	theirs to	-1.695409
-1.530603	theirs and	-3.49974
-0.964766	theirs taxi	-2.694983
-0.964766	theirs cab	-2.694983
-0.964766	theirs uber	-2.694983
-1.566826	theirs back	-4.308823
-2.606201	our </s>
-1.451422	our at	-1.71205
-0.236412	our to	-1.695409
-1.530603	our and	-3.49974
-0.964766	our taxi	-2.694983
-0.964766	our cab	-2.694983
-0.964766	our uber	-2.694983
-1.566826	our back	-4.308823
-1.399932	guide me	-4.287676
-5.08878	guide to	-0.993553
-1.399932	guide my	-4.287692
-1.399927	guide it	-4.278364
-1.399932	guide their	-4.287827
-2.074782	guide alex	-3.791422
-2.074782	guide charlie	-3.791422
-2.375812	guide elizabeth	-3.490864
-2.074782	guide francis	-3.791422
-2.375812	guide jennifer	-3.490864
-2.375812	guide linda	-3.490864
-2.375812	guide mary	-3.490864
-2.375812	guide patricia	-3.490864
-2.074782	guide robin	-3.791422
-2.074782	guide skyler	-3.791422
-2.375812	guide james	-3.490864
-2.375812	guide john	-3.490864
-2.375812	guide michael	-3.490864
-2.375812	guide robert	-3.490864
-2.375812	guide william	-3.490864
-1.399932	guide your	-4.287785
-1.399932	guide i	-4.287703
-1.399931	guide you	-4.28915
-1.399932	guide he	-4.287811
-1.399932	guide she	-4.287811
-1.399932	guide we	-4.287811
-1.399932	guide they	-4.287811
-1.399932	guide him	-4.287811
-1.399932	guide her	-4.287811
-1.399932	guide its	-4.287811
-1.399932	guide us	-4.287811
-1.399932	guide them	-4.287811
-1.399932	guide mine	-4.287811
-1.399932	guide yours	-4.287811
-1.399932	guide his	-4.287811
-1.399932	guide hers	-4.287811
-1.399932	guide ours	-4.287811
-1.399932	guide theirs	-4.287811
-1.399932	guide our	-4.287811
-1.399932	escort me	-4.287676
-5.08878	escort to	-0.993553
-1.399932	escort my	-4.287692
-1.399927	escort it	-4.278364
-1.399932	escort their	-4.287827
-2.074782	escort alex	-3.791422
-2.074782	escort charlie	-3.791422
-2.375812	escort elizabeth	-3.490864
-2.074782	escort francis	-3.791422
-2.375812	escort jennifer	-3.490864
-2.375812	escort linda	-3.490864
-2.375812	escort mary	-3.490864
-2.375812	escort patricia	-3.490864
-2.074782	escort robin	-3.791422
-2.074782	escort skyler	-3.791422
-2.375812	escort james	-3.490864
-2.375812	escort john	-3.490864
-2.375812	escort michael	-3.490864
-2.375812	escort robert	-3.490864
-2.375812	escort william	-3.490864
-1.399932	escort your	-4.287785
-1.399932	escort i	-4.287703
-1.399931	escort you	-4.28915
-1.399932	escort he	-4.287811
-1.399932	escort she	-4.287811
-1.399932	escort we	-4.287811
-1.399932	escort they	-4.287811
-1.399932	escort him	-4.287811
-1.399932	escort her	-4.287811
-1.399932	escort its	-4.287811
-1.399932	escort us	-4.287811
-1.399932	escort them	-4.287811
-1.399932	escort mine	-4.287811
-1.399932	escort yours	-4.287811
-1.399932	escort his	-4.287811
-1.399932	escort hers	-4.287811
-1.399932	escort ours	-4.287811
-1.399932	escort theirs	-4.287811
-1.399932	escort our	-4.287811
-1.399932	lead me	-4.287676
-5.08878	lead to	-0.993553
-1.399932	lead my	-4.287692
-1.399927	lead it	-4.278364
-1.399932	lead their	-4.287827
-2.074782	lead alex	-3.791422
-2.074782	lead charlie	-3.791422
-2.375812	lead elizabeth	-3.490864
-2.074782	lead francis	-3.791422
-2.375812	lead jennifer	-3.490864
-2.375812	lead linda	-3.490864
-2.375812	lead mary	-3.490864
-2.375812	lead patricia	-3.490864
-2.074782	lead robin	-3.791422
-2.074782	lead skyler	-3.791422
-2.375812	lead james	-3.490864
-2.375812	lead john	-3.490864
-2.375812	lead michael	-3.490864
-2.375812	lead robert	-3.490864
-2.375812	lead william	-3.490864
-1.399932	lead your	-4.287785
-1.399932	lead i	-4.287703
-1.399931	lead you	-4.28915
-1.399932	lead he	-4.287811
-1.399932	lead she	-4.287811
-1.399932	lead we	-4.287811
-1.399932	lead they	-4.287811
-1.399932	lead him	-4.287811
-1.399932	lead her	-4.287811
-1.399932	lead its	-4.287811
-1.399932	lead us	-4.287811
-1.399932	lead them	-4.287811
-1.399932	lead mine	-4.287811
-1.399932	lead yours	-4.287811
-1.399932	lead his	-4.287811
-1.399932	lead hers	-4.287811
-1.399932	lead ours	-4.287811
-1.399932	lead theirs	-4.287811
-1.399932	lead our	-4.287811
-1.399932	accompany me	-4.287676
-5.08878	accompany to	-0.993553
-1.399932	accompany my	-4.287692
-1.399927	accompany it	-4.278364
-1.399932	accompany their	-4.287827
-2.074782	accompany alex	-3.791422
-2.074782	accompany charlie	-3.791422
-2.375812	accompany elizabeth	-3.490864
-2.074782	accompany francis	-3.791422
-2.375812	accompany jennifer	-3.490864
-2.375812	accompany linda	-3.490864
-2.375812	accompany mary	-3.490864
-2.375812	accompany patricia	-3.490864
-2.074782	accompany robin	-3.791422
-2.074782	accompany skyler	-3.791422
-2.375812	accompany james	-3.490864
-2.375812	accompany john	-3.490864
-2.375812	accompany michael	-3.490864
-2.375812	accompany robert	-3.490864
-2.375812	accompany william	-3.490864
-1.399932	accompany your	-4.287785
-1.399932	accompany i	-4.287703
-1.399931	accompany you	-4.28915
-1.399932	accompany he	-4.287811
-1.399932	accompany she	-4.287811
-1.399932	accompany we	-4.287811
-1.399932	accompany they	-4.287811
-1.399932	accompany him	-4.287811
-1.399932	accompany her	-4.287811
-1.399932	accompany its	-4.287811
-1.399932	accompany us	-4.287811
-1.399932	accompany them	-4.287811
-1.399932	accompany mine	-4.287811
-1.399932	accompany yours	-4.287811
-1.399932	accompany his	-4.287811
-1.399932	accompany hers	-4.287811
-1.399932	accompany ours	-4.287811
-1.399932	accompany theirs	-4.287811
-1.399932	accompany our	-4.287811
-0.09464031	back </s>
-1.00921	back entrance	-4.755966
-1.00921	back door	-3.611075
-0.3148251	serve drinks	-1.504936
-0.3148251	serve snacks	-1.504936
-0.3148251	arrange drinks	-1.504936
-0.3148251	arrange snacks	-1.504936
-0.3148251	distribute drinks	-1.504936
-0.3148251	distribute snacks	-1.504936
-0.3148251	provide drinks	-1.504936
-0.3148251	provide snacks	-1.504936
-1.000003	contact alex	-5.368745
-1.000003	contact charlie	-5.368745
-1.301033	contact elizabeth	-5.067717
-1.000003	contact francis	-5.368745
-1.301033	contact jennifer	-5.067717
-1.301033	contact linda	-5.067717
-1.301033	contact mary	-5.067717
-1.301033	contact patricia	-5.067717
-1.000003	contact robin	-5.368745
-1.000003	contact skyler	-5.368745
-1.301033	contact james	-5.067717
-1.301033	contact john	-5.067717
-1.301033	contact michael	-5.067717
-1.301033	contact robert	-5.067717
-1.301033	contact william	-5.067717
-1.000003	face alex	-5.368745
-1.000003	face charlie	-5.368745
-1.301033	face elizabeth	-5.067717
-1.000003	face francis	-5.368745
-1.301033	face jennifer	-5.067717
-1.301033	face linda	-5.067717
-1.301033	face mary	-5.067717
-1.301033	face patricia	-5.067717
-1.000003	face robin	-5.368745
-1.000003	face skyler	-5.368745
-1.301033	face james	-5.067717
-1.301033	face john	-5.067717
-1.301033	face michael	-5.067717
-1.301033	face robert	-5.067717
-1.301033	face william	-5.067717
-1.000003	greet alex	-5.368745
-1.000003	greet charlie	-5.368745
-1.301033	greet elizabeth	-5.067717
-1.000003	greet francis	-5.368745
-1.301033	greet jennifer	-5.067717
-1.301033	greet linda	-5.067717
-1.301033	greet mary	-5.067717
-1.301033	greet patricia	-5.067717
-1.000003	greet robin	-5.368745
-1.000003	greet skyler	-5.368745
-1.301033	greet james	-5.067717
-1.301033	greet john	-5.067717
-1.301033	greet michael	-5.067717
-1.301033	greet robert	-5.067717
-1.301033	greet william	-5.067717
-6.644449e-06	everyone in	-4.814311
-0.3010372	front entrance	-4.755966
-0.3010374	front door	-3.611075
-0.3010372	main entrance	-4.755966
-0.3010374	main door	-3.611075
-0.3010372	rear entrance	-4.755966
-0.3010374	rear door	-3.611075
-6.644449e-06	guests in	-4.814311
-6.644449e-06	elders in	-4.814311
-6.644449e-06	children in	-4.814311
-1.77362e-06	door and	-5.358021
-1.362285	ask me	-2.850776
-1.362287	ask my	-2.850776
-1.362072	ask it	-2.850776
-1.362287	ask their	-2.850776
-1.362287	ask your	-2.850776
-1.362287	ask i	-2.850776
-1.362244	ask you	-2.850776
-1.362287	ask he	-2.850776
-1.362287	ask she	-2.850776
-1.362287	ask we	-2.850776
-1.362287	ask they	-2.850776
-1.362287	ask him	-2.850776
-1.362287	ask her	-2.850776
-1.362287	ask its	-2.850776
-1.362287	ask us	-2.850776
-1.362287	ask them	-2.850776
-1.362287	ask mine	-2.850776
-1.362287	ask yours	-2.850776
-1.362287	ask his	-2.850776
-1.362287	ask hers	-2.850776
-1.362287	ask ours	-2.850776
-1.362287	ask theirs	-2.850776
-1.362287	ask our	-2.850776
-1.36173	introduce me	-5.208101
-1.36173	introduce my	-5.208101
-1.361729	introduce it	-5.2081
-1.36173	introduce their	-5.2081
-1.36173	introduce your	-5.208101
-1.36173	introduce i	-5.208101
-1.36173	introduce you	-5.208101
-1.36173	introduce he	-5.208101
-1.36173	introduce she	-5.208101
-1.36173	introduce we	-5.208101
-1.36173	introduce they	-5.208101
-1.36173	introduce him	-5.208101
-1.36173	introduce her	-5.208101
-1.36173	introduce its	-5.208101
-1.36173	introduce us	-5.208101
-1.36173	introduce them	-5.208101
-1.36173	introduce mine	-5.208101
-1.36173	introduce yours	-5.208101
-1.36173	introduce his	-5.208101
-1.36173	introduce hers	-5.208101
-1.36173	introduce ours	-5.208101
-1.36173	introduce theirs	-5.208101
-1.36173	introduce our	-5.208101
-2.474306e-05	leave </s>
-2.094548e-06	may find	-3.946562
-2.094548e-06	will find	-3.946562

\3-grams:
-4.053771	<s> find the
-4.819655	<s> find three
-1.000046	<s> find alex
-1.000046	<s> find charlie
-1.301075	<s> find elizabeth
-1.000046	<s> find francis
-1.301075	<s> find jennifer
-1.301075	<s> find linda
-1.301075	<s> find mary
-1.301075	<s> find patricia
-1.000046	<s> find robin
-1.000046	<s> find skyler
-1.301075	<s> find james
-1.301075	<s> find john
-1.301075	<s> find michael
-1.301075	<s> find robert
-1.301075	<s> find william
-0.06900991	<s> locate the
-0.8329212	<s> locate three
-2.929761e-09	<s> look for
-0.03898557	<s> tell me
-1.589121	<s> tell the
-2.066254	<s> tell a
-1.765224	<s> tell what
-2.066254	<s> tell something
-1.589132	<s> tell your
-0.7010933	<s> the time
-0.4000633	<s> the day
-0.3013459	<s> bring me
-0.3758643	<s> bring the
-2.56049	<s> bring cloth
-2.56049	<s> bring scrubby
-2.56049	<s> bring sponge
-2.56049	<s> bring cascade
-2.56049	<s> bring tray
-2.56049	<s> bring basket
-2.56049	<s> bring bag
-2.56049	<s> bring fork
-2.56049	<s> bring knife
-2.56049	<s> bring spoon
-2.56049	<s> bring chocolate
-2.56049	<s> bring coke
-2.56049	<s> bring grape
-2.25946	<s> bring orange
-2.56049	<s> bring sprite
-2.56049	<s> bring cereal
-2.56049	<s> bring noodles
-2.56049	<s> bring sausages
-2.56049	<s> bring apple
-2.56049	<s> bring paprika
-2.56049	<s> bring pringles
-2.56049	<s> bring crackers
-2.56049	<s> bring potato
-2.56049	<s> bring dish
-2.56049	<s> bring bowl
-2.56049	<s> bring cup
-2.747621	<s> bring my
-0.1518662	<s> take the
-4.849661	<s> take out
-4.676327	<s> take to
-4.430577	<s> take my
-1.530201	<s> take alex
-1.530201	<s> take charlie
-1.831231	<s> take elizabeth
-1.530201	<s> take francis
-1.831231	<s> take jennifer
-1.831231	<s> take linda
-1.831231	<s> take mary
-1.831231	<s> take patricia
-1.530201	<s> take robin
-1.530201	<s> take skyler
-1.831231	<s> take james
-1.831231	<s> take john
-1.831231	<s> take michael
-1.831231	<s> take robert
-1.831231	<s> take william
-0.1324908	<s> give me
-0.8627624	<s> give the
-2.26254	<s> give drinks
-2.26254	<s> give snacks
-2.391634	<s> give cloth
-2.391634	<s> give scrubby
-2.391634	<s> give sponge
-2.391634	<s> give cascade
-2.391634	<s> give tray
-2.391634	<s> give basket
-2.391634	<s> give bag
-2.391634	<s> give fork
-2.391634	<s> give knife
-2.391634	<s> give spoon
-2.391634	<s> give chocolate
-2.391634	<s> give coke
-2.391634	<s> give grape
-2.090604	<s> give orange
-2.391634	<s> give sprite
-2.391634	<s> give cereal
-2.391634	<s> give noodles
-2.391634	<s> give sausages
-2.391634	<s> give apple
-2.391634	<s> give paprika
-2.391634	<s> give pringles
-2.391634	<s> give crackers
-2.391634	<s> give potato
-2.391634	<s> give dish
-2.391634	<s> give bowl
-2.391634	<s> give cup
-0.3134761	<s> clean out
-0.3134386	<s> clean up
-0.01242742	<s> tidy up
-0.01080731	<s> neaten the
-0.01080731	<s> order the
-0.00791763	<s> dump the
-4.388252e-12	<s> get the
-4.388252e-12	<s> grasp the
-5.036726e-12	<s> pick up
-0.0008416994	<s> put the
-0.0008416994	<s> place the
-0.2823466	<s> deliver the
-1.682124	<s> deliver drinks
-1.682124	<s> deliver snacks
-1.811219	<s> deliver cloth
-1.811219	<s> deliver scrubby
-1.811219	<s> deliver sponge
-1.811219	<s> deliver cascade
-1.811219	<s> deliver tray
-1.811219	<s> deliver basket
-1.811219	<s> deliver bag
-1.811219	<s> deliver fork
-1.811219	<s> deliver knife
-1.811219	<s> deliver spoon
-1.811219	<s> deliver chocolate
-1.811219	<s> deliver coke
-1.811219	<s> deliver grape
-1.510189	<s> deliver orange
-1.811219	<s> deliver sprite
-1.811219	<s> deliver cereal
-1.811219	<s> deliver noodles
-1.811219	<s> deliver sausages
-1.811219	<s> deliver apple
-1.811219	<s> deliver paprika
-1.811219	<s> deliver pringles
-1.811219	<s> deliver crackers
-1.811219	<s> deliver potato
-1.811219	<s> deliver dish
-1.811219	<s> deliver bowl
-1.811219	<s> deliver cup
-2.87894e-13	<s> go to
-2.87894e-13	<s> navigate to
-3.540223e-07	<s> answer a
-0.5229989	<s> say the
-1.000212	<s> say a
-0.699182	<s> say what
-1.000212	<s> say something
-0.5230881	<s> say your
-0.2892025	<s> a joke
-0.1290673	<s> what day
-0.004749443	<s> something about
-0.1262415	<s> your teams
-1.007144	<s> follow alex
-1.007144	<s> follow charlie
-1.308174	<s> follow elizabeth
-1.007144	<s> follow francis
-1.308174	<s> follow jennifer
-1.308174	<s> follow linda
-1.308174	<s> follow mary
-1.308174	<s> follow patricia
-1.007144	<s> follow robin
-1.007144	<s> follow skyler
-1.308174	<s> follow james
-1.308174	<s> follow john
-1.308174	<s> follow michael
-1.308174	<s> follow robert
-1.308174	<s> follow william
-0.9999998	<s> meet alex
-0.9999998	<s> meet charlie
-1.30103	<s> meet elizabeth
-0.9999998	<s> meet francis
-1.30103	<s> meet jennifer
-1.30103	<s> meet linda
-1.30103	<s> meet mary
-1.30103	<s> meet patricia
-0.9999998	<s> meet robin
-0.9999998	<s> meet skyler
-1.30103	<s> meet james
-1.30103	<s> meet john
-1.30103	<s> meet michael
-1.30103	<s> meet robert
-1.30103	<s> meet william
-4.146209	<s> guide to
-1.000083	<s> guide alex
-1.000083	<s> guide charlie
-1.301112	<s> guide elizabeth
-1.000083	<s> guide francis
-1.301112	<s> guide jennifer
-1.301112	<s> guide linda
-1.301112	<s> guide mary
-1.301112	<s> guide patricia
-1.000083	<s> guide robin
-1.000083	<s> guide skyler
-1.301112	<s> guide james
-1.301112	<s> guide john
-1.301112	<s> guide michael
-1.301112	<s> guide robert
-1.301112	<s> guide william
-4.146209	<s> escort to
-1.000083	<s> escort alex
-1.000083	<s> escort charlie
-1.301112	<s> escort elizabeth
-1.000083	<s> escort francis
-1.301112	<s> escort jennifer
-1.301112	<s> escort linda
-1.301112	<s> escort mary
-1.301112	<s> escort patricia
-1.000083	<s> escort robin
-1.000083	<s> escort skyler
-1.301112	<s> escort james
-1.301112	<s> escort john
-1.301112	<s> escort michael
-1.301112	<s> escort robert
-1.301112	<s> escort william
-4.146209	<s> lead to
-1.000083	<s> lead alex
-1.000083	<s> lead charlie
-1.301112	<s> lead elizabeth
-1.000083	<s> lead francis
-1.301112	<s> lead jennifer
-1.301112	<s> lead linda
-1.301112	<s> lead mary
-1.301112	<s> lead patricia
-1.000083	<s> lead robin
-1.000083	<s> lead skyler
-1.301112	<s> lead james
-1.301112	<s> lead john
-1.301112	<s> lead michael
-1.301112	<s> lead robert
-1.301112	<s> lead william
-4.146209	<s> accompany to
-1.000083	<s> accompany alex
-1.000083	<s> accompany charlie
-1.301112	<s> accompany elizabeth
-1.000083	<s> accompany francis
-1.301112	<s> accompany jennifer
-1.301112	<s> accompany linda
-1.301112	<s> accompany mary
-1.301112	<s> accompany patricia
-1.000083	<s> accompany robin
-1.000083	<s> accompany skyler
-1.301112	<s> accompany james
-1.301112	<s> accompany john
-1.301112	<s> accompany michael
-1.301112	<s> accompany robert
-1.301112	<s> accompany william
-0.3014547	<s> serve drinks
-0.3014547	<s> serve snacks
-0.3014547	<s> arrange drinks
-0.3014547	<s> arrange snacks
-0.3014547	<s> distribute drinks
-0.3014547	<s> distribute snacks
-0.3014547	<s> provide drinks
-0.3014547	<s> provide snacks
-1	<s> contact alex
-1	<s> contact charlie
-1.30103	<s> contact elizabeth
-1	<s> contact francis
-1.30103	<s> contact jennifer
-1.30103	<s> contact linda
-1.30103	<s> contact mary
-1.30103	<s> contact patricia
-1	<s> contact robin
-1	<s> contact skyler
-1.30103	<s> contact james
-1.30103	<s> contact john
-1.30103	<s> contact michael
-1.30103	<s> contact robert
-1.30103	<s> contact william
-1	<s> face alex
-1	<s> face charlie
-1.30103	<s> face elizabeth
-1	<s> face francis
-1.30103	<s> face jennifer
-1.30103	<s> face linda
-1.30103	<s> face mary
-1.30103	<s> face patricia
-1	<s> face robin
-1	<s> face skyler
-1.30103	<s> face james
-1.30103	<s> face john
-1.30103	<s> face michael
-1.30103	<s> face robert
-1.30103	<s> face william
-1	<s> greet alex
-1	<s> greet charlie
-1.30103	<s> greet elizabeth
-1	<s> greet francis
-1.30103	<s> greet jennifer
-1.30103	<s> greet linda
-1.30103	<s> greet mary
-1.30103	<s> greet patricia
-1	<s> greet robin
-1	<s> greet skyler
-1.30103	<s> greet james
-1.30103	<s> greet john
-1.30103	<s> greet michael
-1.30103	<s> greet robert
-1.30103	<s> greet william
-1.579309e-05	find me at
-4.842272	find the cleaning
-4.842272	find the containers
-4.842272	find the cutlery
-4.842272	find the drinks
-4.842272	find the food
-4.842272	find the fruits
-4.842272	find the snacks
-4.842272	find the tableware
-1.176163	find the cloth
-1.477192	find the scrubby
-1.477192	find the sponge
-1.477192	find the cascade
-1.176163	find the tray
-1.477192	find the basket
-1.477192	find the bag
-1.477192	find the fork
-1.477192	find the knife
-1.477192	find the spoon
-1.477192	find the chocolate
-1.477192	find the coke
-1.477192	find the grape
-1.176162	find the orange
-1.477192	find the sprite
-1.477192	find the cereal
-1.477192	find the noodles
-1.477192	find the sausages
-1.477192	find the apple
-1.477192	find the paprika
-1.477192	find the pringles
-1.477192	find the crackers
-1.477192	find the potato
-1.477192	find the dish
-1.176163	find the bowl
-1.477192	find the cup
-0.9810254	find three cleaning
-0.9810254	find three containers
-0.9810254	find three cutlery
-0.9810254	find three drinks
-0.9810254	find three food
-0.9810254	find three fruits
-0.9810254	find three snacks
-0.9810254	find three tableware
-1.57741e-05	find my at
-1.623724e-05	find it at
-1.57758e-05	find their at
-1.187945e-07	find alex at
-1.187945e-07	find charlie at
-2.37597e-07	find elizabeth at
-1.187945e-07	find francis at
-2.37597e-07	find jennifer at
-2.37597e-07	find linda at
-2.37597e-07	find mary at
-2.37597e-07	find patricia at
-1.187945e-07	find robin at
-1.187945e-07	find skyler at
-2.37597e-07	find james at
-2.37597e-07	find john at
-2.37597e-07	find michael at
-2.37597e-07	find robert at
-2.37597e-07	find william at
-1.577419e-05	find your at
-1.577412e-05	find i at
-1.603349e-05	find you at
-1.577409e-05	find he at
-1.577409e-05	find she at
-1.577409e-05	find we at
-1.577409e-05	find they at
-1.577409e-05	find him at
-1.577409e-05	find her at
-1.577409e-05	find its at
-1.577409e-05	find us at
-1.577409e-05	find them at
-1.577409e-05	find mine at
-1.577409e-05	find yours at
-1.577409e-05	find his at
-1.577409e-05	find hers at
-1.577409e-05	find ours at
-1.577409e-05	find theirs at
-1.577409e-05	find our at
-4.842272	locate the cleaning
-4.842272	locate the containers
-4.842272	locate the cutlery
-4.842272	locate the drinks
-4.842272	locate the food
-4.842272	locate the fruits
-4.842272	locate the snacks
-4.842272	locate the tableware
-1.176163	locate the cloth
-1.477192	locate the scrubby
-1.477192	locate the sponge
-1.477192	locate the cascade
-1.176163	locate the tray
-1.477192	locate the basket
-1.477192	locate the bag
-1.477192	locate the fork
-1.477192	locate the knife
-1.477192	locate the spoon
-1.477192	locate the chocolate
-1.477192	locate the coke
-1.477192	locate the grape
-1.176162	locate the orange
-1.477192	locate the sprite
-1.477192	locate the cereal
-1.477192	locate the noodles
-1.477192	locate the sausages
-1.477192	locate the apple
-1.477192	locate the paprika
-1.477192	locate the pringles
-1.477192	locate the crackers
-1.477192	locate the potato
-1.477192	locate the dish
-1.176163	locate the bowl
-1.477192	locate the cup
-0.9810254	locate three cleaning
-0.9810254	locate three containers
-0.9810254	locate three cutlery
-0.9810254	locate three drinks
-0.9810254	locate three food
-0.9810254	locate three fruits
-0.9810254	locate three snacks
-0.9810254	locate three tableware
-2.485064e-05	look for the
-4.240215	look for three
-1.471465	tell me the
-0.4630997	tell me which
-0.5590646	tell me how
-0.4630997	tell me whats
-0.4900102	tell the time
-0.1889802	tell the day
-0.01853601	tell a joke
-0.007403385	tell what day
-0.0004061242	tell something about
-0.006491134	tell your teams
-4.842321	for the cleaning
-4.842321	for the containers
-4.842321	for the cutlery
-4.842321	for the drinks
-4.842321	for the food
-4.842321	for the fruits
-4.842321	for the snacks
-4.842321	for the tableware
-1.176211	for the cloth
-1.477241	for the scrubby
-1.477241	for the sponge
-1.477241	for the cascade
-1.176211	for the tray
-1.477241	for the basket
-1.477241	for the bag
-1.477241	for the fork
-1.477241	for the knife
-1.477241	for the spoon
-1.477241	for the chocolate
-1.477241	for the coke
-1.477241	for the grape
-1.176211	for the orange
-1.477241	for the sprite
-1.477241	for the cereal
-1.477241	for the noodles
-1.477241	for the sausages
-1.477241	for the apple
-1.477241	for the paprika
-1.477241	for the pringles
-1.477241	for the crackers
-1.477241	for the potato
-1.477241	for the dish
-1.176211	for the bowl
-1.477241	for the cup
-4.444381	for the most
-4.444378	for the first
-4.444382	for the second
-0.9810254	for three cleaning
-0.9810254	for three containers
-0.9810254	for three cutlery
-0.9810254	for three drinks
-0.9810254	for three food
-0.9810254	for three fruits
-0.9810254	for three snacks
-0.9810254	for three tableware
-0.01469427	for to the
-0.0008124158	for an award
-2.327157	me the cloth
-2.350465	me the scrubby
-2.350465	me the sponge
-2.350465	me the cascade
-2.327157	me the tray
-2.350465	me the basket
-2.350465	me the bag
-2.350465	me the fork
-2.350465	me the knife
-2.350465	me the spoon
-2.350465	me the chocolate
-2.350465	me the coke
-2.350465	me the grape
-2.049435	me the orange
-2.350465	me the sprite
-2.350465	me the cereal
-2.350465	me the noodles
-2.350465	me the sausages
-2.350465	me the apple
-2.350465	me the paprika
-2.350465	me the pringles
-2.350465	me the crackers
-2.350465	me the potato
-2.350465	me the dish
-2.327157	me the bowl
-2.350465	me the cup
-1.446979	me the biggest
-1.446979	me the largest
-1.446979	me the smallest
-1.446979	me the heaviest
-1.446979	me the lightest
-1.446979	me the thinnest
-0.1917065	me the object
-2.401183	me the left
-2.401183	me the right
-2.504095	me the name
-2.504095	me the gender
-2.504095	me the pose
-2.933639e-05	me which are
-9.165938e-05	me how many
-5.706679e-07	me whats the
-8.426155e-13	me at the
-1.612974	me to me
-1.173526	me to the
-1.612976	me to my
-1.612976	me to it
-1.612976	me to their
-1.488014	me to alex
-1.488014	me to charlie
-1.789044	me to elizabeth
-1.488014	me to francis
-1.789044	me to jennifer
-1.789044	me to linda
-1.789044	me to mary
-1.789044	me to patricia
-1.488014	me to robin
-1.488014	me to skyler
-1.789044	me to james
-1.789044	me to john
-1.789044	me to michael
-1.789044	me to robert
-1.789044	me to william
-1.612976	me to your
-1.612976	me to i
-1.408856	me to all
-1.612976	me to you
-1.612976	me to he
-1.612976	me to she
-1.612976	me to we
-1.612976	me to they
-1.612976	me to him
-1.612976	me to her
-1.612976	me to its
-1.612976	me to us
-1.612976	me to them
-1.612976	me to mine
-1.612976	me to yours
-1.612976	me to his
-1.612976	me to hers
-1.612976	me to ours
-1.612976	me to theirs
-1.612976	me to our
-2.187007	me to everyone
-2.789067	me to leave
-0.7352455	me and take
-1.398072	me and go
-1.398072	me and navigate
-0.7352455	me and guide
-0.7352455	me and escort
-0.7352455	me and lead
-0.7352455	me and accompany
-2.641826e-12	me taxi </s>
-2.641826e-12	me cab </s>
-2.641826e-12	me uber </s>
-4.176329e-06	me back </s>
-0.7786901	the three biggest
-0.7786901	the three largest
-0.7786901	the three smallest
-0.7786901	the three heaviest
-0.7786901	the three lightest
-0.7786901	the three thinnest
-3.594721e-05	the cleaning stuff
-0.01457873	the containers in
-0.01457873	the cutlery in
-0.0150165	the drinks in
-0.01457873	the food in
-0.01457873	the fruits in
-0.0150165	the snacks in
-0.01457873	the tableware in
-4.462967	the cloth </s>
-3.799175	the cloth in
-3.392036	the cloth on
-2.946363	the cloth to
-0.5824914	the cloth from
-0.1326811	the cloth and
-4.447804	the scrubby </s>
-3.900421	the scrubby in
-3.493283	the scrubby on
-2.976508	the scrubby to
-0.3827085	the scrubby from
-0.2334505	the scrubby and
-4.447804	the sponge </s>
-3.900421	the sponge in
-3.493283	the sponge on
-2.976508	the sponge to
-0.3827085	the sponge from
-0.2334505	the sponge and
-3.890687e-11	the cascade pod
-4.462967	the tray </s>
-3.799175	the tray in
-3.392036	the tray on
-2.946363	the tray to
-0.5824914	the tray from
-0.1326811	the tray and
-4.447804	the basket </s>
-3.900421	the basket in
-3.493283	the basket on
-2.976508	the basket to
-0.3827085	the basket from
-0.2334505	the basket and
-4.447804	the bag </s>
-3.900421	the bag in
-3.493283	the bag on
-2.976507	the bag to
-0.3827085	the bag from
-0.2334505	the bag and
-4.447804	the fork </s>
-3.900421	the fork in
-3.493283	the fork on
-2.976508	the fork to
-0.3827085	the fork from
-0.2334505	the fork and
-4.447804	the knife </s>
-3.900421	the knife in
-3.493283	the knife on
-2.976508	the knife to
-0.3827085	the knife from
-0.2334505	the knife and
-4.447804	the spoon </s>
-3.900421	the spoon in
-3.493283	the spoon on
-2.976508	the spoon to
-0.3827085	the spoon from
-0.2334505	the spoon and
-3.890687e-11	the chocolate drink
-4.447804	the coke </s>
-3.900421	the coke in
-3.493283	the coke on
-2.976508	the coke to
-0.3827085	the coke from
-0.2334505	the coke and
-3.888608e-11	the grape juice
-4.748835	the orange </s>
-0.3010298	the orange juice
-4.201451	the orange in
-3.794313	the orange on
-3.277544	the orange to
-0.6837383	the orange from
-0.5344802	the orange and
-4.447804	the sprite </s>
-3.900421	the sprite in
-3.493283	the sprite on
-2.976508	the sprite to
-0.3827085	the sprite from
-0.2334505	the sprite and
-4.447804	the cereal </s>
-3.900421	the cereal in
-3.493283	the cereal on
-2.976508	the cereal to
-0.3827085	the cereal from
-0.2334505	the cereal and
-4.447804	the noodles </s>
-3.900421	the noodles in
-3.493283	the noodles on
-2.976508	the noodles to
-0.3827085	the noodles from
-0.2334505	the noodles and
-4.447804	the sausages </s>
-3.900421	the sausages in
-3.493283	the sausages on
-2.976508	the sausages to
-0.3827085	the sausages from
-0.2334505	the sausages and
-4.447894	the apple </s>
-3.900512	the apple in
-3.493374	the apple on
-2.976596	the apple to
-0.3827992	the apple from
-0.2335412	the apple and
-3.678663	the apple i
-4.447804	the paprika </s>
-3.900421	the paprika in
-3.493283	the paprika on
-2.976508	the paprika to
-0.3827085	the paprika from
-0.2334505	the paprika and
-4.447804	the pringles </s>
-3.900421	the pringles in
-3.493283	the pringles on
-2.976508	the pringles to
-0.3827085	the pringles from
-0.2334505	the pringles and
-4.447804	the crackers </s>
-3.900421	the crackers in
-3.493283	the crackers on
-2.976508	the crackers to
-0.3827085	the crackers from
-0.2334505	the crackers and
-3.890687e-11	the potato chips
-4.447804	the dish </s>
-3.900421	the dish in
-3.493283	the dish on
-2.976508	the dish to
-0.3827085	the dish from
-0.2334505	the dish and
-4.462967	the bowl </s>
-3.799175	the bowl in
-3.392036	the bowl on
-2.946363	the bowl to
-0.5824914	the bowl from
-0.1326811	the bowl and
-4.447804	the cup </s>
-3.900421	the cup in
-3.493283	the cup on
-2.976508	the cup to
-0.3827085	the cup from
-0.2334505	the cup and
-0.9543923	the biggest cleaning
-0.9543923	the biggest containers
-0.9543923	the biggest cutlery
-0.9543923	the biggest drinks
-0.9543923	the biggest food
-0.9543923	the biggest fruits
-0.9543923	the biggest snacks
-0.9543923	the biggest tableware
-0.9564247	the biggest object
-0.9547198	the largest cleaning
-0.9547198	the largest containers
-0.9547198	the largest cutlery
-0.9547198	the largest drinks
-0.9547198	the largest food
-0.9547198	the largest fruits
-0.9547198	the largest snacks
-0.9547198	the largest tableware
-0.9566761	the largest object
-0.9543923	the smallest cleaning
-0.9543923	the smallest containers
-0.9543923	the smallest cutlery
-0.9543923	the smallest drinks
-0.9543923	the smallest food
-0.9543923	the smallest fruits
-0.9543923	the smallest snacks
-0.9543923	the smallest tableware
-0.9564247	the smallest object
-0.9543923	the heaviest cleaning
-0.9543923	the heaviest containers
-0.9543923	the heaviest cutlery
-0.9543923	the heaviest drinks
-0.9543923	the heaviest food
-0.9543923	the heaviest fruits
-0.9543923	the heaviest snacks
-0.9543923	the heaviest tableware
-0.9564247	the heaviest object
-0.9543923	the lightest cleaning
-0.9543923	the lightest containers
-0.9543923	the lightest cutlery
-0.9543923	the lightest drinks
-0.9543923	the lightest food
-0.9543923	the lightest fruits
-0.9543923	the lightest snacks
-0.9543923	the lightest tableware
-0.9564247	the lightest object
-0.9543923	the thinnest cleaning
-0.9543923	the thinnest containers
-0.9543923	the thinnest cutlery
-0.9543923	the thinnest drinks
-0.9543923	the thinnest food
-0.9543923	the thinnest fruits
-0.9543923	the thinnest snacks
-0.9543923	the thinnest tableware
-0.9564247	the thinnest object
-0.778139	the object on
-0.477146	the object at
-0.7781761	the object above
-0.7781761	the object behind
-0.7781761	the object under
-0.00356191	the corridor </s>
-3.854683	the corridor are
-2.095362	the corridor to
-0.00356191	the bedroom </s>
-3.854683	the bedroom are
-2.095362	the bedroom to
-1.267612	the dining room
-0.02410874	the dining table
-3.335945e-11	the living room
-0.00356191	the kitchen </s>
-3.854683	the kitchen are
-2.095362	the kitchen to
-3.182821e-12	the side table
-0.4273976	the desk </s>
-1.741801	the desk find
-1.741801	the desk locate
-1.741801	the desk look
-3.312066	the desk to
-0.309042	the desk and
-1.51461	the desk you
-1.593791	the desk follow
-1.61152	the desk meet
-8.901569e-14	the end table
-0.4945703	the bookcase </s>
-1.337487	the bookcase find
-1.337487	the bookcase locate
-1.337487	the bookcase look
-3.384872	the bookcase to
-0.324801	the bookcase and
-1.587416	the bookcase you
-1.666597	the bookcase follow
-1.684326	the bookcase meet
-1.572848	the cupboard </s>
-0.7020693	the cupboard find
-0.7020693	the cupboard locate
-0.7020693	the cupboard look
-0.4230513	the cupboard and
-1.41459e-12	the storage table
-0.4273976	the sink </s>
-1.741801	the sink find
-1.741801	the sink locate
-1.741801	the sink look
-3.312066	the sink to
-0.309042	the sink and
-1.51461	the sink you
-1.593791	the sink follow
-1.61152	the sink meet
-1.572848	the counter </s>
-0.7020693	the counter find
-0.7020693	the counter locate
-0.7020693	the counter look
-0.4230513	the counter and
-0.0479445	the litter </s>
-0.0479445	the garbage </s>
-0.0479445	the trash </s>
-0.0479445	the waste </s>
-0.0479445	the debris </s>
-0.0479445	the junk </s>
-0.265878	the left in
-1.786924	the left most
-0.3555604	the left of
-0.265878	the right in
-1.786924	the right most
-0.3555604	the right of
-0.3127074	the most handsome
-0.3127074	the most gold
-1.960848e-08	the taxi </s>
-1.960848e-08	the cab </s>
-1.960848e-08	the uber </s>
-2.328725	the person in
-2.02801	the person at
-0.7051227	the person waving
-0.4040928	the person raising
-0.4040928	the person pointing
-0.3886831	the entrance </s>
-3.270507	the entrance to
-0.2990872	the entrance and
-1.473051	the entrance you
-1.552232	the entrance follow
-1.569961	the entrance meet
-0.388683	the bed </s>
-3.270507	the bed to
-0.2990873	the bed and
-1.47305	the bed you
-1.552232	the bed follow
-1.56996	the bed meet
-0.388683	the exit </s>
-3.270507	the exit to
-0.2990873	the exit and
-1.47305	the exit you
-1.552232	the exit follow
-1.56996	the exit meet
-0.388683	the couch </s>
-3.270507	the couch to
-0.2990873	the couch and
-1.47305	the couch you
-1.552232	the couch follow
-1.56996	the couch meet
-0.388683	the dishwasher </s>
-3.270507	the dishwasher to
-0.2990873	the dishwasher and
-1.47305	the dishwasher you
-1.552232	the dishwasher follow
-1.56996	the dishwasher meet
-0.006210464	the name of
-1.67057	the time </s>
-0.01343472	the time to
-0.002405722	the day of
-1.017686e-10	the people in
-0.0005722295	the gender of
-0.0005722295	the pose of
-0.0008124157	the longest street
-0.0008124035	the origin of
-0.0008124158	the blackberry smartphone
-0.3018424	the world's largest
-0.3018424	the world's first
-0.0008124158	the term beatlemania
-0.8462904	the first time
-0.1473203	the first computer
-0.8462904	the first hard
-0.0008124158	the ai knowledge
-0.009905065	the robots on
-0.0007467767	the compiler to
-0.0008124157	the c programming
-0.0008124157	the python programming
-0.0008124035	the inventor of
-1.65914	the week </s>
-0.01030064	the week to
-1.65914	the month </s>
-0.01030064	the month to
-0.0008098857	the record for
-0.0004149923	the mounted police
-0.0008124158	the royal canadian
-0.0007467767	the rcmp to
-5.418864e-05	the hotel de
-0.0008124158	the bear cub
-0.0008124158	the comic sans
-0.0007467767	the world to
-1.105573e-09	the men in
-1.105573e-09	the women in
-0.000211371	the usa for
-0.0008124158	the turing test
-0.0008124158	the motion picture
-0.0008124154	the second time
-0.0008124158	the winter olympics
-0.0008124158	the london zoo
-0.3010359	the back entrance
-0.3010359	the back door
-0.3010298	the front entrance
-0.3010298	the front door
-0.3010298	the main entrance
-0.3010298	the main door
-0.3010298	the rear entrance
-0.3010298	the rear door
-1.01893e-10	the guests in
-1.01893e-10	the elders in
-1.01893e-10	the children in
-0.0002603438	which are the
-0.003884962	which was the
-0.0008124157	which program do
-6.937959e-05	three cleaning stuff
-0.02859021	three containers in
-0.02859021	three cutlery in
-0.02946323	three drinks in
-0.02859021	three food in
-0.02859021	three fruits in
-0.02946323	three snacks in
-0.02859021	three tableware in
-0.9547063	three biggest cleaning
-0.9547063	three biggest containers
-0.9547063	three biggest cutlery
-0.9547063	three biggest drinks
-0.9547063	three biggest food
-0.9547063	three biggest fruits
-0.9547063	three biggest snacks
-0.9547063	three biggest tableware
-0.9755379	three biggest objects
-0.9557222	three largest cleaning
-0.9557222	three largest containers
-0.9557222	three largest cutlery
-0.9557222	three largest drinks
-0.9557222	three largest food
-0.9557222	three largest fruits
-0.9557222	three largest snacks
-0.9557222	three largest tableware
-0.9757892	three largest objects
-0.9547063	three smallest cleaning
-0.9547063	three smallest containers
-0.9547063	three smallest cutlery
-0.9547063	three smallest drinks
-0.9547063	three smallest food
-0.9547063	three smallest fruits
-0.9547063	three smallest snacks
-0.9547063	three smallest tableware
-0.9755379	three smallest objects
-0.9547063	three heaviest cleaning
-0.9547063	three heaviest containers
-0.9547063	three heaviest cutlery
-0.9547063	three heaviest drinks
-0.9547063	three heaviest food
-0.9547063	three heaviest fruits
-0.9547063	three heaviest snacks
-0.9547063	three heaviest tableware
-0.9755379	three heaviest objects
-0.9547063	three lightest cleaning
-0.9547063	three lightest containers
-0.9547063	three lightest cutlery
-0.9547063	three lightest drinks
-0.9547063	three lightest food
-0.9547063	three lightest fruits
-0.9547063	three lightest snacks
-0.9547063	three lightest tableware
-0.9755379	three lightest objects
-0.9547063	three thinnest cleaning
-0.9547063	three thinnest containers
-0.9547063	three thinnest cutlery
-0.9547063	three thinnest drinks
-0.9547063	three thinnest food
-0.9547063	three thinnest fruits
-0.9547063	three thinnest snacks
-0.9547063	three thinnest tableware
-0.9755379	three thinnest objects
-0.3018424	three famous male
-0.3018424	three famous female
-1.040647	cleaning stuff in
-1.463411	cleaning stuff there
-0.3842302	cleaning stuff on
-0.3357135	cleaning stuff from
-3.699134e-06	containers in the
-0.001096987	containers there are
-2.864702e-05	containers on the
-4.189857e-08	containers from the
-3.699134e-06	cutlery in the
-0.001096987	cutlery there are
-2.864702e-05	cutlery on the
-4.189857e-08	cutlery from the
-3.699134e-06	drinks in the
-0.001096987	drinks there are
-2.864702e-05	drinks on the
-0.07146049	drinks to all
-0.8496118	drinks to everyone
-4.189857e-08	drinks from the
-3.699134e-06	food in the
-0.001096987	food there are
-2.864702e-05	food on the
-4.189857e-08	food from the
-3.699134e-06	fruits in the
-0.001096987	fruits there are
-2.864702e-05	fruits on the
-4.189857e-08	fruits from the
-3.699134e-06	snacks in the
-0.001096987	snacks there are
-2.864702e-05	snacks on the
-0.07146049	snacks to all
-0.8496118	snacks to everyone
-4.189857e-08	snacks from the
-3.699134e-06	tableware in the
-0.001096987	tableware there are
-2.864702e-05	tableware on the
-4.189857e-08	tableware from the
-1.679616	how many cleaning
-1.679616	how many containers
-1.679616	how many cutlery
-1.679616	how many drinks
-1.679616	how many food
-1.679616	how many fruits
-1.679616	how many snacks
-1.679616	how many tableware
-1.378565	how many cloth
-1.67959	how many scrubby
-1.67959	how many sponge
-1.67959	how many cascade
-1.378565	how many tray
-1.67959	how many basket
-1.67959	how many bag
-1.67959	how many fork
-1.67959	how many knife
-1.67959	how many spoon
-1.67959	how many chocolate
-1.67959	how many coke
-1.67959	how many grape
-1.37856	how many orange
-1.67959	how many sprite
-1.67959	how many cereal
-1.67959	how many noodles
-1.67959	how many sausages
-1.67959	how many apple
-1.67959	how many paprika
-1.67959	how many pringles
-1.67959	how many crackers
-1.67959	how many potato
-1.67959	how many dish
-1.378565	how many bowl
-1.67959	how many cup
-1.512125	how many time
-0.9558196	how many people
-1.211095	how many tons
-0.0008124139	how long is
-0.1764628	how big is
-0.4774928	how big was
-0.0008115791	how small can
-0.7813456	whats the biggest
-0.7813456	whats the largest
-0.7813456	whats the smallest
-0.7813456	whats the heaviest
-0.7813456	whats the lightest
-0.7813456	whats the thinnest
-0.0005340571	are the three
-0.01846464	are there in
-9.080438e-06	are on the
-0.01887148	are a threat
-0.0008124158	are self-driving cars
-0.0001949107	are required to
-0.03330105	are male </s>
-0.03330105	are female </s>
-0.04647301	are men </s>
-0.04647301	are women </s>
-0.004171931	are boys </s>
-0.004171931	are girls </s>
-0.004171931	are sitting </s>
-0.004171931	are standing </s>
-0.004497022	are lying down
-5.481597e-06	cloth in the
-0.0005657845	cloth there are
-7.55987e-05	cloth on the
-1.47733	cloth to me
-0.01732443	cloth to the
-1.943913e-10	cloth from the
-0.4790512	cloth and bring
-0.4790512	cloth and give
-2.65729	cloth and put
-2.65729	cloth and place
-0.4790512	cloth and deliver
-1.057936e-05	scrubby in the
-0.001096987	scrubby there are
-0.0001490444	scrubby on the
-1.506896	scrubby to me
-0.01744865	scrubby to the
-1.943913e-10	scrubby from the
-0.4795429	scrubby and bring
-0.4795429	scrubby and give
-2.560862	scrubby and put
-2.560862	scrubby and place
-0.4795429	scrubby and deliver
-1.057936e-05	sponge in the
-0.001096987	sponge there are
-0.0001490444	sponge on the
-1.506896	sponge to me
-0.01744865	sponge to the
-1.943913e-10	sponge from the
-0.4795429	sponge and bring
-0.4795429	sponge and give
-2.560862	sponge and put
-2.560862	sponge and place
-0.4795429	sponge and deliver
-4.448149	cascade pod </s>
-3.900767	cascade pod in
-3.84641	cascade pod there
-3.493629	cascade pod on
-2.767464	cascade pod to
-0.3830543	cascade pod from
-0.2337963	cascade pod and
-5.481597e-06	tray in the
-0.0005657845	tray there are
-7.55987e-05	tray on the
-1.47733	tray to me
-0.01732443	tray to the
-1.943913e-10	tray from the
-0.4790512	tray and bring
-0.4790512	tray and give
-2.65729	tray and put
-2.65729	tray and place
-0.4790512	tray and deliver
-1.057936e-05	basket in the
-0.001096987	basket there are
-0.0001490444	basket on the
-1.506896	basket to me
-0.01744865	basket to the
-1.943913e-10	basket from the
-0.4795429	basket and bring
-0.4795429	basket and give
-2.560862	basket and put
-2.560862	basket and place
-0.4795429	basket and deliver
-1.057936e-05	bag in the
-0.001096987	bag there are
-0.0001490444	bag on the
-1.520907	bag to me
-0.01688368	bag to the
-1.943913e-10	bag from the
-0.4795429	bag and bring
-0.4795429	bag and give
-2.560862	bag and put
-2.560862	bag and place
-0.4795429	bag and deliver
-1.057936e-05	fork in the
-0.001096987	fork there are
-0.0001490444	fork on the
-1.506896	fork to me
-0.01744865	fork to the
-1.943913e-10	fork from the
-0.4795429	fork and bring
-0.4795429	fork and give
-2.560862	fork and put
-2.560862	fork and place
-0.4795429	fork and deliver
-1.057936e-05	knife in the
-0.001096987	knife there are
-0.0001490444	knife on the
-1.506896	knife to me
-0.01744865	knife to the
-1.943913e-10	knife from the
-0.4795429	knife and bring
-0.4795429	knife and give
-2.560862	knife and put
-2.560862	knife and place
-0.4795429	knife and deliver
-1.057936e-05	spoon in the
-0.001096987	spoon there are
-0.0001490444	spoon on the
-1.506896	spoon to me
-0.01744865	spoon to the
-1.943913e-10	spoon from the
-0.4795429	spoon and bring
-0.4795429	spoon and give
-2.560862	spoon and put
-2.560862	spoon and place
-0.4795429	spoon and deliver
-4.448149	chocolate drink </s>
-3.900767	chocolate drink in
-3.84641	chocolate drink there
-3.493629	chocolate drink on
-2.767464	chocolate drink to
-0.3830543	chocolate drink from
-0.2337963	chocolate drink and
-1.057936e-05	coke in the
-0.001096987	coke there are
-0.0001490444	coke on the
-1.506896	coke to me
-0.01744865	coke to the
-1.943913e-10	coke from the
-0.4795429	coke and bring
-0.4795429	coke and give
-2.560862	coke and put
-2.560862	coke and place
-0.4795429	coke and deliver
-4.448151	grape juice </s>
-3.900767	grape juice in
-3.84641	grape juice there
-3.493629	grape juice on
-2.767464	grape juice to
-0.3830543	grape juice from
-0.2337963	grape juice and
-4.448151	orange juice </s>
-3.900767	orange juice in
-3.84641	orange juice there
-3.493629	orange juice on
-2.767464	orange juice to
-0.3830543	orange juice from
-0.2337963	orange juice and
-1.057936e-05	orange in the
-0.001096987	orange there are
-0.0001490444	orange on the
-1.506896	orange to me
-0.01744865	orange to the
-1.943913e-10	orange from the
-0.4795429	orange and bring
-0.4795429	orange and give
-2.560862	orange and put
-2.560862	orange and place
-0.4795429	orange and deliver
-1.057936e-05	sprite in the
-0.001096987	sprite there are
-0.0001490444	sprite on the
-1.506896	sprite to me
-0.01744865	sprite to the
-1.943913e-10	sprite from the
-0.4795429	sprite and bring
